svm_type c_svc
kernel_type rbf
gamma 0.008928571428571428
nr_class 2
total_sv 609
rho -0.35899257135309626
label 1 2
nr_sv 297 312
SV
0.698733346096112 6:1.0 7:1.0 15:1.0 21:1.0 29:1.0 33:1.0 34:1.0 37:1.0 48:1.0 50:1.0 53:1.0 57:1.0 67:1.0 76:1.0 78:1.0 81:1.0 84:1.0 86:1.0 95:1.0 103:1.0 111:1.0
1.0 6:1.0 7:1.0 15:1.0 21:1.0 29:1.0 33:1.0 34:1.0 37:1.0 42:1.0 50:1.0 53:1.0 57:1.0 67:1.0 76:1.0 78:1.0 81:1.0 84:1.0 86:1.0 95:1.0 104:1.0 111:1.0
0.6239133583774683 6:1.0 7:1.0 15:1.0 21:1.0 29:1.0 33:1.0 34:1.0 37:1.0 48:1.0 50:1.0 53:1.0 57:1.0 67:1.0 76:1.0 78:1.0 81:1.0 84:1.0 86:1.0 95:1.0 104:1.0 111:1.0
0.7969507824334359 6:1.0 7:1.0 15:1.0 21:1.0 29:1.0 33:1.0 34:1.0 37:1.0 45:1.0 50:1.0 53:1.0 57:1.0 67:1.0 76:1.0 78:1.0 81:1.0 84:1.0 86:1.0 93:1.0 104:1.0 111:1.0
1.0 3:1.0 7:1.0 15:1.0 21:1.0 29:1.0 33:1.0 34:1.0 37:1.0 48:1.0 50:1.0 53:1.0 57:1.0 67:1.0 76:1.0 78:1.0 81:1.0 84:1.0 86:1.0 93:1.0 103:1.0 111:1.0
1.0 6:1.0 7:1.0 15:1.0 21:1.0 29:1.0 33:1.0 34:1.0 37:1.0 44:1.0 50:1.0 53:1.0 57:1.0 67:1.0 76:1.0 78:1.0 81:1.0 84:1.0 86:1.0 95:1.0 104:1.0 111:1.0
1.0 6:1.0 7:1.0 15:1.0 21:1.0 29:1.0 33:1.0 34:1.0 37:1.0 42:1.0 50:1.0 53:1.0 57:1.0 67:1.0 76:1.0 78:1.0 81:1.0 84:1.0 86:1.0 93:1.0 103:1.0 111:1.0
1.0 6:1.0 7:1.0 15:1.0 21:1.0 29:1.0 33:1.0 34:1.0 37:1.0 45:1.0 50:1.0 53:1.0 57:1.0 67:1.0 76:1.0 78:1.0 81:1.0 84:1.0 86:1.0 95:1.0 104:1.0 111:1.0
1.0 6:1.0 8:1.0 15:1.0 21:1.0 29:1.0 33:1.0 34:1.0 37:1.0 42:1.0 50:1.0 53:1.0 57:1.0 67:1.0 76:1.0 78:1.0 81:1.0 84:1.0 86:1.0 95:1.0 104:1.0 111:1.0
0.21490896564738907 6:1.0 7:1.0 15:1.0 21:1.0 29:1.0 33:1.0 34:1.0 37:1.0 42:1.0 50:1.0 53:1.0 57:1.0 67:1.0 76:1.0 78:1.0 81:1.0 84:1.0 86:1.0 93:1.0 104:1.0 111:1.0
1.0 6:1.0 7:1.0 15:1.0 21:1.0 29:1.0 33:1.0 34:1.0 37:1.0 48:1.0 50:1.0 53:1.0 57:1.0 67:1.0 76:1.0 78:1.0 81:1.0 84:1.0 86:1.0 93:1.0 103:1.0 107:1.0
0.9843374669144987 6:1.0 7:1.0 15:1.0 21:1.0 29:1.0 33:1.0 34:1.0 37:1.0 45:1.0 50:1.0 53:1.0 57:1.0 67:1.0 76:1.0 78:1.0 81:1.0 84:1.0 86:1.0 95:1.0 103:1.0 107:1.0
1.0 6:1.0 8:1.0 15:1.0 21:1.0 29:1.0 33:1.0 34:1.0 37:1.0 45:1.0 50:1.0 53:1.0 57:1.0 67:1.0 76:1.0 78:1.0 81:1.0 84:1.0 86:1.0 95:1.0 104:1.0 111:1.0
0.005634494832884807 6:1.0 8:1.0 15:1.0 21:1.0 29:1.0 33:1.0 34:1.0 37:1.0 48:1.0 50:1.0 53:1.0 57:1.0 67:1.0 76:1.0 78:1.0 81:1.0 84:1.0 86:1.0 95:1.0 104:1.0 111:1.0
1.0 6:1.0 8:1.0 15:1.0 21:1.0 29:1.0 33:1.0 34:1.0 37:1.0 44:1.0 50:1.0 53:1.0 57:1.0 67:1.0 76:1.0 78:1.0 81:1.0 84:1.0 86:1.0 95:1.0 104:1.0 111:1.0
1.0 3:1.0 7:1.0 15:1.0 21:1.0 29:1.0 33:1.0 34:1.0 37:1.0 45:1.0 50:1.0 53:1.0 57:1.0 67:1.0 76:1.0 78:1.0 81:1.0 84:1.0 86:1.0 95:1.0 104:1.0 111:1.0
1.0 6:1.0 7:1.0 15:1.0 21:1.0 29:1.0 33:1.0 34:1.0 37:1.0 48:1.0 50:1.0 53:1.0 57:1.0 67:1.0 76:1.0 78:1.0 81:1.0 84:1.0 86:1.0 93:1.0 103:1.0 111:1.0
1.0 3:1.0 7:1.0 15:1.0 21:1.0 29:1.0 33:1.0 34:1.0 37:1.0 44:1.0 50:1.0 53:1.0 57:1.0 67:1.0 76:1.0 78:1.0 81:1.0 84:1.0 86:1.0 95:1.0 103:1.0 111:1.0
0.69873962881082 3:1.0 7:1.0 19:1.0 21:1.0 29:1.0 33:1.0 34:1.0 37:1.0 42:1.0 50:1.0 53:1.0 57:1.0 67:1.0 76:1.0 78:1.0 81:1.0 84:1.0 86:1.0 93:1.0 103:1.0 111:1.0
1.0 6:1.0 7:1.0 15:1.0 21:1.0 29:1.0 33:1.0 34:1.0 37:1.0 48:1.0 50:1.0 53:1.0 57:1.0 67:1.0 76:1.0 78:1.0 81:1.0 84:1.0 86:1.0 95:1.0 103:1.0 107:1.0
0.8563275773266354 3:1.0 8:1.0 15:1.0 21:1.0 29:1.0 33:1.0 34:1.0 37:1.0 45:1.0 50:1.0 53:1.0 57:1.0 67:1.0 76:1.0 78:1.0 81:1.0 84:1.0 86:1.0 95:1.0 104:1.0 111:1.0
0.2857675983448701 3:1.0 7:1.0 19:1.0 21:1.0 29:1.0 33:1.0 34:1.0 37:1.0 42:1.0 50:1.0 53:1.0 57:1.0 67:1.0 76:1.0 78:1.0 81:1.0 84:1.0 86:1.0 95:1.0 103:1.0 111:1.0
0.2853347005549132 6:1.0 8:1.0 19:1.0 21:1.0 29:1.0 33:1.0 34:1.0 37:1.0 44:1.0 50:1.0 53:1.0 57:1.0 67:1.0 76:1.0 78:1.0 81:1.0 84:1.0 86:1.0 95:1.0 104:1.0 111:1.0
0.41916342234948056 3:1.0 7:1.0 15:1.0 21:1.0 29:1.0 33:1.0 34:1.0 37:1.0 45:1.0 50:1.0 53:1.0 57:1.0 67:1.0 76:1.0 78:1.0 81:1.0 84:1.0 86:1.0 93:1.0 104:1.0 111:1.0
1.0 3:1.0 7:1.0 15:1.0 21:1.0 29:1.0 33:1.0 34:1.0 37:1.0 45:1.0 50:1.0 53:1.0 57:1.0 67:1.0 76:1.0 78:1.0 81:1.0 84:1.0 86:1.0 95:1.0 103:1.0 111:1.0
0.5213288551131438 3:1.0 8:1.0 19:1.0 21:1.0 29:1.0 33:1.0 34:1.0 37:1.0 42:1.0 50:1.0 53:1.0 57:1.0 67:1.0 76:1.0 78:1.0 81:1.0 84:1.0 86:1.0 95:1.0 103:1.0 111:1.0
1.0 6:1.0 7:1.0 15:1.0 21:1.0 29:1.0 33:1.0 34:1.0 37:1.0 44:1.0 50:1.0 53:1.0 57:1.0 67:1.0 76:1.0 78:1.0 81:1.0 84:1.0 86:1.0 93:1.0 104:1.0 111:1.0
1.0 3:1.0 7:1.0 15:1.0 21:1.0 29:1.0 33:1.0 34:1.0 37:1.0 45:1.0 50:1.0 53:1.0 57:1.0 67:1.0 76:1.0 78:1.0 81:1.0 84:1.0 86:1.0 95:1.0 103:1.0 107:1.0
0.41841207026742283 3:1.0 8:1.0 19:1.0 21:1.0 29:1.0 33:1.0 34:1.0 37:1.0 44:1.0 50:1.0 53:1.0 57:1.0 67:1.0 76:1.0 78:1.0 81:1.0 84:1.0 86:1.0 95:1.0 103:1.0 111:1.0
0.922803478074813 3:1.0 8:1.0 15:1.0 21:1.0 29:1.0 33:1.0 34:1.0 37:1.0 42:1.0 50:1.0 53:1.0 57:1.0 67:1.0 76:1.0 78:1.0 81:1.0 84:1.0 86:1.0 93:1.0 103:1.0 111:1.0
0.4831561535484427 3:1.0 8:1.0 15:1.0 21:1.0 29:1.0 33:1.0 34:1.0 37:1.0 48:1.0 50:1.0 53:1.0 57:1.0 67:1.0 76:1.0 78:1.0 81:1.0 84:1.0 86:1.0 95:1.0 103:1.0 111:1.0
1.0 3:1.0 7:1.0 15:1.0 21:1.0 29:1.0 33:1.0 34:1.0 37:1.0 45:1.0 50:1.0 53:1.0 57:1.0 67:1.0 76:1.0 78:1.0 81:1.0 84:1.0 86:1.0 93:1.0 103:1.0 107:1.0
1.0 3:1.0 7:1.0 15:1.0 21:1.0 29:1.0 33:1.0 34:1.0 37:1.0 44:1.0 50:1.0 53:1.0 57:1.0 67:1.0 76:1.0 78:1.0 81:1.0 84:1.0 86:1.0 93:1.0 103:1.0 107:1.0
0.5256942536112766 6:1.0 7:1.0 15:1.0 21:1.0 29:1.0 33:1.0 34:1.0 37:1.0 42:1.0 50:1.0 53:1.0 57:1.0 67:1.0 76:1.0 78:1.0 81:1.0 84:1.0 86:1.0 93:1.0 103:1.0 107:1.0
1.0 3:1.0 7:1.0 15:1.0 21:1.0 29:1.0 33:1.0 34:1.0 37:1.0 48:1.0 50:1.0 53:1.0 57:1.0 67:1.0 76:1.0 78:1.0 81:1.0 84:1.0 86:1.0 93:1.0 103:1.0 107:1.0
0.8439020388474197 3:1.0 7:1.0 15:1.0 21:1.0 29:1.0 33:1.0 34:1.0 37:1.0 44:1.0 50:1.0 53:1.0 57:1.0 67:1.0 76:1.0 78:1.0 81:1.0 84:1.0 86:1.0 95:1.0 104:1.0 111:1.0
1.0 3:1.0 7:1.0 15:1.0 21:1.0 29:1.0 33:1.0 34:1.0 37:1.0 48:1.0 50:1.0 53:1.0 57:1.0 67:1.0 76:1.0 78:1.0 81:1.0 84:1.0 86:1.0 95:1.0 103:1.0 111:1.0
0.9594380042209554 3:1.0 8:1.0 15:1.0 21:1.0 29:1.0 33:1.0 34:1.0 37:1.0 44:1.0 50:1.0 53:1.0 57:1.0 67:1.0 76:1.0 78:1.0 81:1.0 84:1.0 86:1.0 95:1.0 103:1.0 111:1.0
1.0 3:1.0 7:1.0 15:1.0 21:1.0 29:1.0 33:1.0 34:1.0 37:1.0 44:1.0 50:1.0 53:1.0 57:1.0 67:1.0 76:1.0 78:1.0 81:1.0 84:1.0 86:1.0 93:1.0 103:1.0 111:1.0
0.972487265032483 3:1.0 7:1.0 15:1.0 21:1.0 29:1.0 33:1.0 34:1.0 37:1.0 42:1.0 50:1.0 53:1.0 57:1.0 67:1.0 76:1.0 78:1.0 81:1.0 84:1.0 86:1.0 95:1.0 103:1.0 111:1.0
1.0 3:1.0 7:1.0 15:1.0 21:1.0 29:1.0 33:1.0 34:1.0 37:1.0 48:1.0 50:1.0 53:1.0 57:1.0 67:1.0 76:1.0 78:1.0 81:1.0 84:1.0 86:1.0 95:1.0 103:1.0 107:1.0
0.909045755064345 3:1.0 7:1.0 19:1.0 21:1.0 29:1.0 33:1.0 34:1.0 37:1.0 44:1.0 50:1.0 53:1.0 57:1.0 67:1.0 76:1.0 78:1.0 81:1.0 84:1.0 86:1.0 95:1.0 103:1.0 111:1.0
0.8609902655039243 3:1.0 8:1.0 15:1.0 21:1.0 29:1.0 33:1.0 34:1.0 37:1.0 44:1.0 50:1.0 53:1.0 57:1.0 67:1.0 76:1.0 78:1.0 81:1.0 84:1.0 86:1.0 93:1.0 103:1.0 111:1.0
1.0 3:1.0 7:1.0 15:1.0 21:1.0 29:1.0 33:1.0 34:1.0 37:1.0 45:1.0 50:1.0 53:1.0 57:1.0 67:1.0 76:1.0 78:1.0 81:1.0 84:1.0 86:1.0 93:1.0 103:1.0 111:1.0
1.0 3:1.0 8:1.0 15:1.0 21:1.0 29:1.0 33:1.0 34:1.0 37:1.0 44:1.0 50:1.0 53:1.0 57:1.0 67:1.0 76:1.0 78:1.0 81:1.0 84:1.0 86:1.0 95:1.0 104:1.0 111:1.0
1.0 3:1.0 7:1.0 15:1.0 21:1.0 29:1.0 33:1.0 34:1.0 37:1.0 42:1.0 50:1.0 53:1.0 57:1.0 67:1.0 76:1.0 78:1.0 81:1.0 84:1.0 86:1.0 93:1.0 103:1.0 111:1.0
1.0 6:1.0 8:1.0 19:1.0 22:1.0 24:1.0 33:1.0 35:1.0 37:1.0 45:1.0 50:1.0 53:1.0 57:1.0 67:1.0 76:1.0 78:1.0 81:1.0 84:1.0 86:1.0 95:1.0 103:1.0 106:1.0
1.0 6:1.0 10:1.0 19:1.0 22:1.0 24:1.0 33:1.0 35:1.0 37:1.0 40:1.0 50:1.0 53:1.0 57:1.0 67:1.0 76:1.0 78:1.0 81:1.0 84:1.0 86:1.0 95:1.0 103:1.0 106:1.0
1.0 6:1.0 10:1.0 19:1.0 22:1.0 24:1.0 33:1.0 35:1.0 37:1.0 47:1.0 50:1.0 53:1.0 57:1.0 67:1.0 76:1.0 78:1.0 81:1.0 84:1.0 86:1.0 95:1.0 104:1.0 106:1.0
1.0 6:1.0 10:1.0 14:1.0 22:1.0 24:1.0 33:1.0 35:1.0 37:1.0 40:1.0 50:1.0 53:1.0 57:1.0 67:1.0 76:1.0 78:1.0 81:1.0 84:1.0 86:1.0 93:1.0 103:1.0 106:1.0
1.0 6:1.0 8:1.0 19:1.0 22:1.0 24:1.0 33:1.0 35:1.0 37:1.0 40:1.0 50:1.0 53:1.0 57:1.0 67:1.0 76:1.0 78:1.0 81:1.0 84:1.0 86:1.0 93:1.0 104:1.0 106:1.0
1.0 6:1.0 8:1.0 14:1.0 22:1.0 24:1.0 33:1.0 35:1.0 37:1.0 40:1.0 50:1.0 53:1.0 57:1.0 67:1.0 76:1.0 78:1.0 81:1.0 84:1.0 86:1.0 95:1.0 104:1.0 106:1.0
0.22577513730042184 3:1.0 10:1.0 20:1.0 22:1.0 25:1.0 33:1.0 34:1.0 36:1.0 40:1.0 50:1.0 54:1.0 58:1.0 65:1.0 74:1.0 78:1.0 81:1.0 84:1.0 89:1.0 92:1.0 105:1.0 110:1.0
1.0 6:1.0 8:1.0 19:1.0 22:1.0 24:1.0 33:1.0 35:1.0 37:1.0 45:1.0 50:1.0 53:1.0 57:1.0 67:1.0 76:1.0 78:1.0 81:1.0 84:1.0 86:1.0 93:1.0 103:1.0 106:1.0
1.0 6:1.0 10:1.0 19:1.0 22:1.0 24:1.0 33:1.0 35:1.0 37:1.0 44:1.0 50:1.0 53:1.0 57:1.0 67:1.0 76:1.0 78:1.0 81:1.0 84:1.0 86:1.0 95:1.0 103:1.0 106:1.0
1.0 6:1.0 8:1.0 19:1.0 22:1.0 24:1.0 33:1.0 35:1.0 37:1.0 40:1.0 50:1.0 53:1.0 57:1.0 67:1.0 76:1.0 78:1.0 81:1.0 84:1.0 86:1.0 95:1.0 103:1.0 106:1.0
0.5370151242569242 6:1.0 8:1.0 14:1.0 22:1.0 24:1.0 33:1.0 35:1.0 37:1.0 40:1.0 50:1.0 53:1.0 57:1.0 67:1.0 76:1.0 78:1.0 81:1.0 84:1.0 86:1.0 93:1.0 104:1.0 106:1.0
1.0 6:1.0 8:1.0 19:1.0 22:1.0 24:1.0 33:1.0 35:1.0 37:1.0 45:1.0 50:1.0 53:1.0 57:1.0 67:1.0 76:1.0 78:1.0 81:1.0 84:1.0 86:1.0 93:1.0 104:1.0 106:1.0
1.0 6:1.0 8:1.0 14:1.0 22:1.0 24:1.0 33:1.0 35:1.0 37:1.0 44:1.0 50:1.0 53:1.0 57:1.0 67:1.0 76:1.0 78:1.0 81:1.0 84:1.0 86:1.0 95:1.0 103:1.0 106:1.0
1.0 6:1.0 10:1.0 19:1.0 22:1.0 24:1.0 33:1.0 35:1.0 37:1.0 45:1.0 50:1.0 53:1.0 57:1.0 67:1.0 76:1.0 78:1.0 81:1.0 84:1.0 86:1.0 93:1.0 104:1.0 106:1.0
1.0 6:1.0 8:1.0 19:1.0 22:1.0 24:1.0 33:1.0 35:1.0 37:1.0 44:1.0 50:1.0 53:1.0 57:1.0 67:1.0 76:1.0 78:1.0 81:1.0 84:1.0 86:1.0 95:1.0 103:1.0 106:1.0
1.0 6:1.0 10:1.0 19:1.0 22:1.0 24:1.0 33:1.0 35:1.0 37:1.0 40:1.0 50:1.0 53:1.0 57:1.0 67:1.0 76:1.0 78:1.0 81:1.0 84:1.0 86:1.0 93:1.0 104:1.0 106:1.0
1.0 6:1.0 10:1.0 14:1.0 22:1.0 24:1.0 33:1.0 35:1.0 37:1.0 47:1.0 50:1.0 53:1.0 57:1.0 67:1.0 76:1.0 78:1.0 81:1.0 84:1.0 86:1.0 93:1.0 104:1.0 106:1.0
1.0 6:1.0 10:1.0 14:1.0 22:1.0 24:1.0 33:1.0 35:1.0 37:1.0 47:1.0 50:1.0 53:1.0 57:1.0 67:1.0 76:1.0 78:1.0 81:1.0 84:1.0 86:1.0 95:1.0 104:1.0 106:1.0
1.0 6:1.0 8:1.0 19:1.0 22:1.0 24:1.0 33:1.0 35:1.0 37:1.0 44:1.0 50:1.0 53:1.0 57:1.0 67:1.0 76:1.0 78:1.0 81:1.0 84:1.0 86:1.0 95:1.0 104:1.0 106:1.0
1.0 6:1.0 8:1.0 19:1.0 22:1.0 24:1.0 33:1.0 35:1.0 37:1.0 44:1.0 50:1.0 53:1.0 57:1.0 67:1.0 76:1.0 78:1.0 81:1.0 84:1.0 86:1.0 93:1.0 103:1.0 106:1.0
1.0 6:1.0 8:1.0 14:1.0 22:1.0 24:1.0 33:1.0 35:1.0 37:1.0 45:1.0 50:1.0 53:1.0 57:1.0 67:1.0 76:1.0 78:1.0 81:1.0 84:1.0 86:1.0 95:1.0 103:1.0 106:1.0
1.0 6:1.0 10:1.0 14:1.0 22:1.0 24:1.0 33:1.0 35:1.0 37:1.0 40:1.0 50:1.0 53:1.0 57:1.0 67:1.0 76:1.0 78:1.0 81:1.0 84:1.0 86:1.0 93:1.0 104:1.0 106:1.0
1.0 6:1.0 8:1.0 14:1.0 22:1.0 24:1.0 33:1.0 35:1.0 37:1.0 45:1.0 50:1.0 53:1.0 57:1.0 67:1.0 76:1.0 78:1.0 81:1.0 84:1.0 86:1.0 93:1.0 104:1.0 106:1.0
1.0 6:1.0 10:1.0 14:1.0 22:1.0 24:1.0 33:1.0 35:1.0 37:1.0 40:1.0 50:1.0 53:1.0 57:1.0 67:1.0 76:1.0 78:1.0 81:1.0 84:1.0 86:1.0 95:1.0 104:1.0 106:1.0
1.0 6:1.0 10:1.0 16:1.0 22:1.0 24:1.0 33:1.0 35:1.0 37:1.0 45:1.0 50:1.0 53:1.0 57:1.0 67:1.0 76:1.0 78:1.0 81:1.0 84:1.0 86:1.0 95:1.0 104:1.0 106:1.0
1.0 6:1.0 10:1.0 14:1.0 22:1.0 24:1.0 33:1.0 35:1.0 37:1.0 44:1.0 50:1.0 53:1.0 57:1.0 67:1.0 76:1.0 78:1.0 81:1.0 84:1.0 86:1.0 95:1.0 104:1.0 106:1.0
1.0 6:1.0 10:1.0 19:1.0 22:1.0 24:1.0 33:1.0 35:1.0 37:1.0 47:1.0 50:1.0 53:1.0 57:1.0 67:1.0 76:1.0 78:1.0 81:1.0 84:1.0 86:1.0 95:1.0 103:1.0 106:1.0
1.0 6:1.0 10:1.0 19:1.0 22:1.0 24:1.0 33:1.0 35:1.0 37:1.0 40:1.0 50:1.0 53:1.0 57:1.0 67:1.0 76:1.0 78:1.0 81:1.0 84:1.0 86:1.0 93:1.0 103:1.0 106:1.0
1.0 6:1.0 10:1.0 19:1.0 22:1.0 24:1.0 33:1.0 35:1.0 37:1.0 44:1.0 50:1.0 53:1.0 57:1.0 67:1.0 76:1.0 78:1.0 81:1.0 84:1.0 86:1.0 93:1.0 103:1.0 106:1.0
1.0 6:1.0 10:1.0 14:1.0 22:1.0 24:1.0 33:1.0 35:1.0 37:1.0 45:1.0 50:1.0 53:1.0 57:1.0 67:1.0 76:1.0 78:1.0 81:1.0 84:1.0 86:1.0 95:1.0 104:1.0 106:1.0
1.0 6:1.0 10:1.0 19:1.0 22:1.0 24:1.0 33:1.0 35:1.0 37:1.0 45:1.0 50:1.0 53:1.0 57:1.0 67:1.0 76:1.0 78:1.0 81:1.0 84:1.0 86:1.0 95:1.0 103:1.0 106:1.0
1.0 6:1.0 10:1.0 19:1.0 22:1.0 24:1.0 33:1.0 35:1.0 37:1.0 47:1.0 50:1.0 53:1.0 57:1.0 67:1.0 76:1.0 78:1.0 81:1.0 84:1.0 86:1.0 93:1.0 103:1.0 106:1.0
1.0 6:1.0 8:1.0 19:1.0 22:1.0 24:1.0 33:1.0 35:1.0 37:1.0 45:1.0 50:1.0 53:1.0 57:1.0 67:1.0 76:1.0 78:1.0 81:1.0 84:1.0 86:1.0 95:1.0 104:1.0 106:1.0
1.0 6:1.0 8:1.0 14:1.0 22:1.0 24:1.0 33:1.0 35:1.0 37:1.0 45:1.0 50:1.0 53:1.0 57:1.0 67:1.0 76:1.0 78:1.0 81:1.0 84:1.0 86:1.0 95:1.0 104:1.0 106:1.0
1.0 6:1.0 10:1.0 14:1.0 22:1.0 24:1.0 33:1.0 35:1.0 37:1.0 44:1.0 50:1.0 53:1.0 57:1.0 67:1.0 76:1.0 78:1.0 81:1.0 84:1.0 86:1.0 93:1.0 103:1.0 106:1.0
1.0 6:1.0 10:1.0 14:1.0 22:1.0 24:1.0 33:1.0 35:1.0 37:1.0 44:1.0 50:1.0 53:1.0 57:1.0 67:1.0 76:1.0 78:1.0 81:1.0 84:1.0 86:1.0 95:1.0 103:1.0 106:1.0
1.0 6:1.0 10:1.0 19:1.0 22:1.0 24:1.0 33:1.0 35:1.0 37:1.0 45:1.0 50:1.0 53:1.0 57:1.0 67:1.0 76:1.0 78:1.0 81:1.0 84:1.0 86:1.0 95:1.0 104:1.0 106:1.0
1.0 6:1.0 8:1.0 19:1.0 22:1.0 24:1.0 33:1.0 35:1.0 37:1.0 40:1.0 50:1.0 53:1.0 57:1.0 67:1.0 76:1.0 78:1.0 81:1.0 84:1.0 86:1.0 95:1.0 104:1.0 106:1.0
1.0 6:1.0 10:1.0 19:1.0 22:1.0 24:1.0 33:1.0 35:1.0 37:1.0 45:1.0 50:1.0 53:1.0 57:1.0 67:1.0 76:1.0 78:1.0 81:1.0 84:1.0 86:1.0 93:1.0 103:1.0 106:1.0
1.0 6:1.0 10:1.0 14:1.0 22:1.0 24:1.0 33:1.0 35:1.0 37:1.0 45:1.0 50:1.0 53:1.0 57:1.0 67:1.0 76:1.0 78:1.0 81:1.0 84:1.0 86:1.0 93:1.0 104:1.0 106:1.0
1.0 6:1.0 8:1.0 14:1.0 22:1.0 24:1.0 33:1.0 35:1.0 37:1.0 44:1.0 50:1.0 53:1.0 57:1.0 67:1.0 76:1.0 78:1.0 81:1.0 84:1.0 86:1.0 95:1.0 104:1.0 106:1.0
0.7600091505479103 6:1.0 10:1.0 14:1.0 22:1.0 24:1.0 33:1.0 35:1.0 37:1.0 47:1.0 50:1.0 53:1.0 57:1.0 67:1.0 76:1.0 78:1.0 81:1.0 84:1.0 86:1.0 93:1.0 103:1.0 106:1.0
1.0 6:1.0 8:1.0 19:1.0 22:1.0 24:1.0 33:1.0 35:1.0 37:1.0 40:1.0 50:1.0 53:1.0 57:1.0 67:1.0 76:1.0 78:1.0 81:1.0 84:1.0 86:1.0 93:1.0 103:1.0 106:1.0
1.0 6:1.0 8:1.0 19:1.0 22:1.0 24:1.0 33:1.0 35:1.0 37:1.0 44:1.0 50:1.0 53:1.0 57:1.0 67:1.0 76:1.0 78:1.0 81:1.0 84:1.0 86:1.0 93:1.0 104:1.0 106:1.0
1.0 6:1.0 10:1.0 14:1.0 22:1.0 24:1.0 33:1.0 35:1.0 37:1.0 45:1.0 50:1.0 53:1.0 57:1.0 67:1.0 76:1.0 78:1.0 81:1.0 84:1.0 86:1.0 95:1.0 103:1.0 106:1.0
1.0 6:1.0 8:1.0 19:1.0 22:1.0 24:1.0 33:1.0 35:1.0 37:1.0 47:1.0 50:1.0 53:1.0 57:1.0 67:1.0 76:1.0 78:1.0 81:1.0 84:1.0 86:1.0 95:1.0 104:1.0 106:1.0
1.0 6:1.0 10:1.0 19:1.0 22:1.0 24:1.0 33:1.0 35:1.0 37:1.0 44:1.0 50:1.0 53:1.0 57:1.0 67:1.0 76:1.0 78:1.0 81:1.0 84:1.0 86:1.0 95:1.0 104:1.0 106:1.0
1.0 6:1.0 10:1.0 19:1.0 22:1.0 24:1.0 33:1.0 35:1.0 37:1.0 44:1.0 50:1.0 53:1.0 57:1.0 67:1.0 76:1.0 78:1.0 81:1.0 84:1.0 86:1.0 93:1.0 104:1.0 106:1.0
1.0 6:1.0 10:1.0 19:1.0 22:1.0 24:1.0 33:1.0 35:1.0 37:1.0 47:1.0 50:1.0 53:1.0 57:1.0 67:1.0 76:1.0 78:1.0 81:1.0 84:1.0 86:1.0 93:1.0 104:1.0 106:1.0
1.0 6:1.0 10:1.0 14:1.0 22:1.0 24:1.0 33:1.0 35:1.0 37:1.0 45:1.0 50:1.0 53:1.0 57:1.0 67:1.0 76:1.0 78:1.0 81:1.0 84:1.0 86:1.0 93:1.0 103:1.0 106:1.0
1.0 6:1.0 8:1.0 14:1.0 22:1.0 24:1.0 33:1.0 35:1.0 37:1.0 44:1.0 50:1.0 53:1.0 57:1.0 67:1.0 76:1.0 78:1.0 81:1.0 84:1.0 86:1.0 93:1.0 104:1.0 106:1.0
1.0 6:1.0 10:1.0 14:1.0 22:1.0 24:1.0 33:1.0 35:1.0 37:1.0 40:1.0 50:1.0 53:1.0 57:1.0 67:1.0 76:1.0 78:1.0 81:1.0 84:1.0 86:1.0 95:1.0 103:1.0 106:1.0
1.0 6:1.0 10:1.0 19:1.0 22:1.0 24:1.0 33:1.0 35:1.0 37:1.0 40:1.0 50:1.0 53:1.0 57:1.0 67:1.0 76:1.0 78:1.0 81:1.0 84:1.0 86:1.0 95:1.0 104:1.0 106:1.0
0.23126486477584002 6:1.0 10:1.0 16:1.0 22:1.0 24:1.0 33:1.0 35:1.0 37:1.0 45:1.0 50:1.0 53:1.0 57:1.0 67:1.0 76:1.0 78:1.0 81:1.0 84:1.0 86:1.0 93:1.0 104:1.0 106:1.0
1.0 6:1.0 10:1.0 14:1.0 22:1.0 24:1.0 33:1.0 35:1.0 37:1.0 47:1.0 50:1.0 53:1.0 57:1.0 67:1.0 76:1.0 78:1.0 81:1.0 84:1.0 86:1.0 95:1.0 103:1.0 106:1.0
1.0 3:1.0 10:1.0 14:1.0 22:1.0 25:1.0 33:1.0 34:1.0 36:1.0 40:1.0 50:1.0 54:1.0 58:1.0 65:1.0 74:1.0 78:1.0 81:1.0 84:1.0 89:1.0 92:1.0 105:1.0 110:1.0
1.0 6:1.0 8:1.0 14:1.0 22:1.0 24:1.0 33:1.0 35:1.0 37:1.0 47:1.0 50:1.0 53:1.0 57:1.0 67:1.0 76:1.0 78:1.0 81:1.0 84:1.0 86:1.0 95:1.0 104:1.0 106:1.0
0.7937983043502839 6:1.0 8:1.0 19:1.0 22:1.0 24:1.0 33:1.0 35:1.0 37:1.0 47:1.0 50:1.0 53:1.0 57:1.0 67:1.0 76:1.0 78:1.0 81:1.0 84:1.0 86:1.0 93:1.0 104:1.0 106:1.0
1.0 2:1.0 8:1.0 12:1.0 21:1.0 28:1.0 33:1.0 34:1.0 36:1.0 40:1.0 50:1.0 53:1.0 57:1.0 67:1.0 76:1.0 78:1.0 81:1.0 83:1.0 86:1.0 96:1.0 104:1.0 108:1.0
0.007674213825294141 3:1.0 10:1.0 20:1.0 22:1.0 25:1.0 33:1.0 34:1.0 36:1.0 45:1.0 50:1.0 54:1.0 58:1.0 66:1.0 74:1.0 78:1.0 81:1.0 84:1.0 89:1.0 92:1.0 105:1.0 110:1.0
1.0 6:1.0 10:1.0 14:1.0 22:1.0 24:1.0 33:1.0 35:1.0 37:1.0 44:1.0 50:1.0 53:1.0 57:1.0 67:1.0 76:1.0 78:1.0 81:1.0 84:1.0 86:1.0 93:1.0 104:1.0 106:1.0
1.0 6:1.0 10:1.0 16:1.0 22:1.0 24:1.0 33:1.0 35:1.0 37:1.0 44:1.0 50:1.0 53:1.0 57:1.0 67:1.0 76:1.0 78:1.0 81:1.0 84:1.0 86:1.0 95:1.0 104:1.0 106:1.0
1.0 6:1.0 8:1.0 14:1.0 21:1.0 25:1.0 33:1.0 34:1.0 36:1.0 48:1.0 51:1.0 53:1.0 59:1.0 67:1.0 76:1.0 78:1.0 81:1.0 84:1.0 86:1.0 92:1.0 103:1.0 111:1.0
1.0 3:1.0 10:1.0 14:1.0 22:1.0 25:1.0 33:1.0 34:1.0 36:1.0 45:1.0 50:1.0 54:1.0 58:1.0 65:1.0 74:1.0 78:1.0 81:1.0 84:1.0 89:1.0 92:1.0 105:1.0 110:1.0
1.0 4:1.0 7:1.0 15:1.0 22:1.0 28:1.0 33:1.0 34:1.0 37:1.0 48:1.0 50:1.0 54:1.0 56:1.0 67:1.0 74:1.0 78:1.0 81:1.0 84:1.0 88:1.0 98:1.0 104:1.0 106:1.0
1.0 2:1.0 7:1.0 19:1.0 21:1.0 28:1.0 33:1.0 35:1.0 37:1.0 48:1.0 50:1.0 53:1.0 57:1.0 67:1.0 76:1.0 78:1.0 81:1.0 84:1.0 86:1.0 98:1.0 101:1.0 109:1.0
1.0 3:1.0 10:1.0 20:1.0 22:1.0 28:1.0 33:1.0 34:1.0 37:1.0 48:1.0 50:1.0 54:1.0 56:1.0 67:1.0 77:1.0 78:1.0 81:1.0 84:1.0 88:1.0 98:1.0 104:1.0 106:1.0
0.8257115946070612 3:1.0 10:1.0 14:1.0 22:1.0 25:1.0 33:1.0 34:1.0 36:1.0 41:1.0 50:1.0 54:1.0 58:1.0 65:1.0 74:1.0 78:1.0 81:1.0 84:1.0 89:1.0 92:1.0 105:1.0 110:1.0
1.0 3:1.0 8:1.0 19:1.0 21:1.0 28:1.0 33:1.0 34:1.0 36:1.0 40:1.0 50:1.0 53:1.0 57:1.0 67:1.0 76:1.0 78:1.0 81:1.0 83:1.0 86:1.0 96:1.0 104:1.0 108:1.0
1.0 3:1.0 8:1.0 19:1.0 21:1.0 25:1.0 33:1.0 34:1.0 36:1.0 48:1.0 51:1.0 53:1.0 59:1.0 67:1.0 76:1.0 78:1.0 81:1.0 84:1.0 86:1.0 92:1.0 103:1.0 111:1.0
1.0 3:1.0 8:1.0 16:1.0 21:1.0 28:1.0 33:1.0 34:1.0 36:1.0 48:1.0 50:1.0 53:1.0 57:1.0 67:1.0 76:1.0 78:1.0 81:1.0 83:1.0 86:1.0 96:1.0 104:1.0 107:1.0
0.1303247072724949 3:1.0 10:1.0 14:1.0 22:1.0 25:1.0 33:1.0 34:1.0 36:1.0 40:1.0 50:1.0 54:1.0 58:1.0 66:1.0 74:1.0 78:1.0 81:1.0 84:1.0 89:1.0 92:1.0 105:1.0 110:1.0
1.0 4:1.0 10:1.0 15:1.0 22:1.0 28:1.0 33:1.0 34:1.0 37:1.0 48:1.0 50:1.0 54:1.0 56:1.0 67:1.0 74:1.0 78:1.0 81:1.0 84:1.0 88:1.0 98:1.0 104:1.0 106:1.0
1.0 2:1.0 10:1.0 20:1.0 22:1.0 28:1.0 33:1.0 34:1.0 37:1.0 48:1.0 50:1.0 54:1.0 56:1.0 67:1.0 74:1.0 78:1.0 81:1.0 84:1.0 88:1.0 98:1.0 104:1.0 106:1.0
1.0 2:1.0 8:1.0 12:1.0 21:1.0 28:1.0 33:1.0 34:1.0 36:1.0 40:1.0 50:1.0 53:1.0 57:1.0 67:1.0 76:1.0 78:1.0 81:1.0 83:1.0 86:1.0 96:1.0 104:1.0 107:1.0
1.0 2:1.0 8:1.0 19:1.0 21:1.0 28:1.0 33:1.0 34:1.0 36:1.0 40:1.0 50:1.0 53:1.0 57:1.0 67:1.0 76:1.0 78:1.0 81:1.0 83:1.0 86:1.0 96:1.0 104:1.0 108:1.0
1.0 3:1.0 10:1.0 20:1.0 22:1.0 25:1.0 33:1.0 34:1.0 36:1.0 45:1.0 50:1.0 54:1.0 58:1.0 65:1.0 74:1.0 78:1.0 81:1.0 84:1.0 89:1.0 92:1.0 105:1.0 110:1.0
1.0 2:1.0 7:1.0 19:1.0 21:1.0 28:1.0 33:1.0 34:1.0 36:1.0 48:1.0 50:1.0 53:1.0 57:1.0 67:1.0 76:1.0 78:1.0 81:1.0 83:1.0 86:1.0 96:1.0 104:1.0 108:1.0
0.66098304233449 6:1.0 10:1.0 20:1.0 22:1.0 25:1.0 33:1.0 34:1.0 36:1.0 40:1.0 50:1.0 54:1.0 58:1.0 65:1.0 74:1.0 78:1.0 81:1.0 84:1.0 89:1.0 92:1.0 105:1.0 110:1.0
1.0 3:1.0 7:1.0 15:1.0 22:1.0 28:1.0 33:1.0 34:1.0 37:1.0 48:1.0 50:1.0 54:1.0 56:1.0 67:1.0 74:1.0 78:1.0 81:1.0 84:1.0 88:1.0 98:1.0 104:1.0 106:1.0
0.5009721721849796 3:1.0 8:1.0 14:1.0 21:1.0 25:1.0 33:1.0 34:1.0 36:1.0 45:1.0 51:1.0 53:1.0 59:1.0 67:1.0 76:1.0 78:1.0 81:1.0 84:1.0 86:1.0 92:1.0 103:1.0 111:1.0
1.0 3:1.0 7:1.0 16:1.0 21:1.0 28:1.0 33:1.0 34:1.0 36:1.0 40:1.0 50:1.0 53:1.0 57:1.0 67:1.0 76:1.0 78:1.0 81:1.0 83:1.0 86:1.0 96:1.0 104:1.0 107:1.0
0.27800641213277605 6:1.0 7:1.0 20:1.0 22:1.0 25:1.0 33:1.0 34:1.0 36:1.0 45:1.0 50:1.0 54:1.0 58:1.0 65:1.0 74:1.0 78:1.0 81:1.0 84:1.0 89:1.0 92:1.0 105:1.0 110:1.0
1.0 6:1.0 7:1.0 15:1.0 22:1.0 28:1.0 33:1.0 34:1.0 37:1.0 48:1.0 50:1.0 54:1.0 56:1.0 67:1.0 74:1.0 78:1.0 81:1.0 84:1.0 88:1.0 98:1.0 104:1.0 106:1.0
1.0 2:1.0 8:1.0 12:1.0 21:1.0 28:1.0 33:1.0 34:1.0 36:1.0 48:1.0 50:1.0 53:1.0 57:1.0 67:1.0 76:1.0 78:1.0 81:1.0 83:1.0 86:1.0 96:1.0 104:1.0 107:1.0
1.0 6:1.0 8:1.0 19:1.0 21:1.0 25:1.0 33:1.0 34:1.0 36:1.0 45:1.0 51:1.0 53:1.0 59:1.0 67:1.0 76:1.0 78:1.0 81:1.0 84:1.0 86:1.0 92:1.0 103:1.0 111:1.0
1.0 4:1.0 10:1.0 20:1.0 22:1.0 28:1.0 33:1.0 34:1.0 37:1.0 48:1.0 50:1.0 54:1.0 56:1.0 67:1.0 74:1.0 78:1.0 81:1.0 84:1.0 88:1.0 98:1.0 104:1.0 106:1.0
1.0 2:1.0 7:1.0 16:1.0 21:1.0 28:1.0 33:1.0 34:1.0 36:1.0 48:1.0 50:1.0 53:1.0 57:1.0 67:1.0 76:1.0 78:1.0 81:1.0 83:1.0 86:1.0 96:1.0 104:1.0 107:1.0
1.0 6:1.0 8:1.0 19:1.0 21:1.0 25:1.0 33:1.0 34:1.0 36:1.0 45:1.0 51:1.0 53:1.0 57:1.0 67:1.0 76:1.0 78:1.0 81:1.0 84:1.0 86:1.0 92:1.0 103:1.0 111:1.0
1.0 3:1.0 9:1.0 19:1.0 21:1.0 28:1.0 33:1.0 35:1.0 37:1.0 48:1.0 50:1.0 53:1.0 57:1.0 67:1.0 76:1.0 78:1.0 81:1.0 84:1.0 86:1.0 98:1.0 101:1.0 109:1.0
1.0 6:1.0 8:1.0 19:1.0 21:1.0 25:1.0 33:1.0 34:1.0 36:1.0 48:1.0 51:1.0 53:1.0 59:1.0 67:1.0 76:1.0 78:1.0 81:1.0 84:1.0 86:1.0 92:1.0 103:1.0 111:1.0
1.0 1:1.0 9:1.0 19:1.0 21:1.0 28:1.0 33:1.0 35:1.0 37:1.0 48:1.0 50:1.0 53:1.0 57:1.0 67:1.0 76:1.0 78:1.0 81:1.0 84:1.0 86:1.0 98:1.0 101:1.0 109:1.0
1.0 2:1.0 9:1.0 19:1.0 21:1.0 28:1.0 33:1.0 35:1.0 37:1.0 48:1.0 50:1.0 53:1.0 57:1.0 67:1.0 76:1.0 78:1.0 81:1.0 84:1.0 86:1.0 98:1.0 101:1.0 109:1.0
0.1556787003748025 2:1.0 10:1.0 20:1.0 22:1.0 28:1.0 33:1.0 34:1.0 37:1.0 48:1.0 50:1.0 54:1.0 56:1.0 67:1.0 77:1.0 78:1.0 81:1.0 84:1.0 88:1.0 98:1.0 104:1.0 106:1.0
1.0 3:1.0 8:1.0 12:1.0 21:1.0 28:1.0 33:1.0 34:1.0 36:1.0 48:1.0 50:1.0 53:1.0 57:1.0 67:1.0 76:1.0 78:1.0 81:1.0 83:1.0 86:1.0 96:1.0 104:1.0 108:1.0
1.0 3:1.0 8:1.0 12:1.0 21:1.0 28:1.0 33:1.0 34:1.0 36:1.0 46:1.0 50:1.0 53:1.0 57:1.0 67:1.0 76:1.0 78:1.0 81:1.0 83:1.0 86:1.0 96:1.0 104:1.0 107:1.0
1.0 6:1.0 7:1.0 15:1.0 22:1.0 28:1.0 33:1.0 34:1.0 37:1.0 48:1.0 50:1.0 54:1.0 56:1.0 67:1.0 77:1.0 78:1.0 81:1.0 84:1.0 88:1.0 98:1.0 104:1.0 106:1.0
0.28079446840174155 6:1.0 7:1.0 15:1.0 22:1.0 31:1.0 33:1.0 34:1.0 37:1.0 38:1.0 51:1.0 53:1.0 58:1.0 67:1.0 76:1.0 78:1.0 81:1.0 84:1.0 88:1.0 98:1.0 104:1.0 109:1.0
1.0 3:1.0 10:1.0 15:1.0 22:1.0 28:1.0 33:1.0 34:1.0 37:1.0 48:1.0 50:1.0 54:1.0 56:1.0 67:1.0 77:1.0 78:1.0 81:1.0 84:1.0 88:1.0 98:1.0 104:1.0 106:1.0
1.0 6:1.0 10:1.0 15:1.0 22:1.0 28:1.0 33:1.0 34:1.0 37:1.0 48:1.0 50:1.0 54:1.0 56:1.0 67:1.0 74:1.0 78:1.0 81:1.0 84:1.0 88:1.0 98:1.0 104:1.0 106:1.0
1.0 2:1.0 7:1.0 19:1.0 21:1.0 28:1.0 33:1.0 34:1.0 36:1.0 46:1.0 50:1.0 53:1.0 57:1.0 67:1.0 76:1.0 78:1.0 81:1.0 83:1.0 86:1.0 96:1.0 104:1.0 107:1.0
1.0 6:1.0 8:1.0 19:1.0 21:1.0 25:1.0 33:1.0 34:1.0 36:1.0 45:1.0 51:1.0 53:1.0 57:1.0 67:1.0 76:1.0 78:1.0 81:1.0 84:1.0 86:1.0 92:1.0 103:1.0 107:1.0
1.0 3:1.0 7:1.0 16:1.0 21:1.0 28:1.0 33:1.0 34:1.0 36:1.0 48:1.0 50:1.0 53:1.0 57:1.0 67:1.0 76:1.0 78:1.0 81:1.0 83:1.0 86:1.0 96:1.0 104:1.0 107:1.0
1.0 3:1.0 10:1.0 15:1.0 22:1.0 28:1.0 33:1.0 34:1.0 37:1.0 48:1.0 50:1.0 54:1.0 56:1.0 67:1.0 74:1.0 78:1.0 81:1.0 84:1.0 88:1.0 98:1.0 104:1.0 106:1.0
0.22532846500686715 6:1.0 8:1.0 14:1.0 21:1.0 25:1.0 33:1.0 34:1.0 36:1.0 45:1.0 51:1.0 53:1.0 57:1.0 67:1.0 76:1.0 78:1.0 81:1.0 84:1.0 86:1.0 92:1.0 104:1.0 111:1.0
1.0 3:1.0 7:1.0 16:1.0 21:1.0 28:1.0 33:1.0 34:1.0 36:1.0 48:1.0 50:1.0 53:1.0 57:1.0 67:1.0 76:1.0 78:1.0 81:1.0 83:1.0 86:1.0 96:1.0 104:1.0 108:1.0
1.0 2:1.0 7:1.0 15:1.0 22:1.0 28:1.0 33:1.0 34:1.0 37:1.0 48:1.0 50:1.0 54:1.0 56:1.0 67:1.0 74:1.0 78:1.0 81:1.0 84:1.0 88:1.0 98:1.0 104:1.0 106:1.0
1.0 4:1.0 7:1.0 19:1.0 21:1.0 28:1.0 33:1.0 35:1.0 37:1.0 48:1.0 50:1.0 53:1.0 57:1.0 67:1.0 76:1.0 78:1.0 81:1.0 84:1.0 86:1.0 98:1.0 101:1.0 109:1.0
1.0 4:1.0 10:1.0 20:1.0 22:1.0 28:1.0 33:1.0 34:1.0 37:1.0 48:1.0 50:1.0 54:1.0 56:1.0 67:1.0 77:1.0 78:1.0 81:1.0 84:1.0 88:1.0 98:1.0 104:1.0 106:1.0
1.0 3:1.0 7:1.0 20:1.0 22:1.0 28:1.0 33:1.0 34:1.0 37:1.0 48:1.0 50:1.0 54:1.0 56:1.0 67:1.0 77:1.0 78:1.0 81:1.0 84:1.0 88:1.0 98:1.0 104:1.0 106:1.0
0.4506652772865914 6:1.0 7:1.0 15:1.0 22:1.0 31:1.0 33:1.0 34:1.0 37:1.0 38:1.0 51:1.0 53:1.0 57:1.0 67:1.0 76:1.0 78:1.0 81:1.0 84:1.0 88:1.0 98:1.0 104:1.0 110:1.0
1.0 2:1.0 7:1.0 19:1.0 21:1.0 28:1.0 33:1.0 34:1.0 36:1.0 48:1.0 50:1.0 53:1.0 57:1.0 67:1.0 76:1.0 78:1.0 81:1.0 83:1.0 86:1.0 96:1.0 104:1.0 107:1.0
1.0 2:1.0 7:1.0 12:1.0 21:1.0 28:1.0 33:1.0 34:1.0 36:1.0 48:1.0 50:1.0 53:1.0 57:1.0 67:1.0 76:1.0 78:1.0 81:1.0 83:1.0 86:1.0 96:1.0 104:1.0 108:1.0
1.0 6:1.0 10:1.0 20:1.0 22:1.0 28:1.0 33:1.0 34:1.0 37:1.0 48:1.0 50:1.0 54:1.0 56:1.0 67:1.0 77:1.0 78:1.0 81:1.0 84:1.0 88:1.0 98:1.0 104:1.0 106:1.0
1.0 4:1.0 7:1.0 15:1.0 22:1.0 28:1.0 33:1.0 34:1.0 37:1.0 48:1.0 50:1.0 54:1.0 56:1.0 67:1.0 77:1.0 78:1.0 81:1.0 84:1.0 88:1.0 98:1.0 104:1.0 106:1.0
1.0 6:1.0 7:1.0 15:1.0 22:1.0 31:1.0 33:1.0 34:1.0 37:1.0 38:1.0 51:1.0 53:1.0 57:1.0 67:1.0 76:1.0 78:1.0 81:1.0 84:1.0 88:1.0 98:1.0 104:1.0 109:1.0
1.0 3:1.0 8:1.0 19:1.0 21:1.0 28:1.0 33:1.0 34:1.0 36:1.0 48:1.0 50:1.0 53:1.0 57:1.0 67:1.0 76:1.0 78:1.0 81:1.0 83:1.0 86:1.0 96:1.0 104:1.0 108:1.0
1.0 3:1.0 7:1.0 19:1.0 21:1.0 28:1.0 33:1.0 35:1.0 37:1.0 48:1.0 50:1.0 53:1.0 57:1.0 67:1.0 76:1.0 78:1.0 81:1.0 84:1.0 86:1.0 98:1.0 101:1.0 109:1.0
1.0 6:1.0 7:1.0 15:1.0 22:1.0 30:1.0 33:1.0 34:1.0 37:1.0 38:1.0 51:1.0 53:1.0 57:1.0 67:1.0 76:1.0 78:1.0 81:1.0 84:1.0 88:1.0 98:1.0 104:1.0 109:1.0
1.0 6:1.0 8:1.0 14:1.0 21:1.0 25:1.0 33:1.0 34:1.0 36:1.0 48:1.0 51:1.0 53:1.0 59:1.0 67:1.0 76:1.0 78:1.0 81:1.0 84:1.0 86:1.0 92:1.0 104:1.0 111:1.0
1.0 2:1.0 7:1.0 15:1.0 22:1.0 28:1.0 33:1.0 34:1.0 37:1.0 48:1.0 50:1.0 54:1.0 56:1.0 67:1.0 77:1.0 78:1.0 81:1.0 84:1.0 88:1.0 98:1.0 104:1.0 106:1.0
1.0 2:1.0 7:1.0 19:1.0 21:1.0 28:1.0 33:1.0 34:1.0 36:1.0 40:1.0 50:1.0 53:1.0 57:1.0 67:1.0 76:1.0 78:1.0 81:1.0 83:1.0 86:1.0 96:1.0 104:1.0 108:1.0
1.0 3:1.0 8:1.0 14:1.0 21:1.0 25:1.0 33:1.0 34:1.0 36:1.0 48:1.0 51:1.0 53:1.0 59:1.0 67:1.0 76:1.0 78:1.0 81:1.0 84:1.0 86:1.0 92:1.0 103:1.0 111:1.0
1.0 6:1.0 8:1.0 19:1.0 21:1.0 25:1.0 33:1.0 34:1.0 36:1.0 41:1.0 51:1.0 53:1.0 59:1.0 67:1.0 76:1.0 78:1.0 81:1.0 84:1.0 86:1.0 92:1.0 103:1.0 111:1.0
1.0 4:1.0 7:1.0 20:1.0 22:1.0 28:1.0 33:1.0 34:1.0 37:1.0 48:1.0 50:1.0 54:1.0 56:1.0 67:1.0 74:1.0 78:1.0 81:1.0 84:1.0 88:1.0 98:1.0 104:1.0 106:1.0
1.0 3:1.0 7:1.0 16:1.0 21:1.0 28:1.0 33:1.0 34:1.0 36:1.0 46:1.0 50:1.0 53:1.0 57:1.0 67:1.0 76:1.0 78:1.0 81:1.0 83:1.0 86:1.0 96:1.0 104:1.0 107:1.0
1.0 3:1.0 7:1.0 12:1.0 21:1.0 28:1.0 33:1.0 34:1.0 36:1.0 46:1.0 50:1.0 53:1.0 57:1.0 67:1.0 76:1.0 78:1.0 81:1.0 83:1.0 86:1.0 96:1.0 104:1.0 107:1.0
1.0 6:1.0 10:1.0 20:1.0 22:1.0 28:1.0 33:1.0 34:1.0 37:1.0 48:1.0 50:1.0 54:1.0 56:1.0 67:1.0 74:1.0 78:1.0 81:1.0 84:1.0 88:1.0 98:1.0 104:1.0 106:1.0
1.0 6:1.0 7:1.0 20:1.0 22:1.0 28:1.0 33:1.0 34:1.0 37:1.0 48:1.0 50:1.0 54:1.0 56:1.0 67:1.0 74:1.0 78:1.0 81:1.0 84:1.0 88:1.0 98:1.0 104:1.0 106:1.0
1.0 3:1.0 8:1.0 16:1.0 21:1.0 28:1.0 33:1.0 34:1.0 36:1.0 48:1.0 50:1.0 53:1.0 57:1.0 67:1.0 76:1.0 78:1.0 81:1.0 83:1.0 86:1.0 96:1.0 104:1.0 108:1.0
1.0 6:1.0 8:1.0 19:1.0 21:1.0 25:1.0 33:1.0 34:1.0 36:1.0 45:1.0 51:1.0 53:1.0 59:1.0 67:1.0 76:1.0 78:1.0 81:1.0 84:1.0 86:1.0 92:1.0 104:1.0 111:1.0
1.0 2:1.0 10:1.0 15:1.0 22:1.0 28:1.0 33:1.0 34:1.0 37:1.0 48:1.0 50:1.0 54:1.0 56:1.0 67:1.0 77:1.0 78:1.0 81:1.0 84:1.0 88:1.0 98:1.0 104:1.0 106:1.0
1.0 2:1.0 7:1.0 12:1.0 21:1.0 28:1.0 33:1.0 34:1.0 36:1.0 40:1.0 50:1.0 53:1.0 57:1.0 67:1.0 76:1.0 78:1.0 81:1.0 83:1.0 86:1.0 96:1.0 104:1.0 108:1.0
0.7028593272611601 3:1.0 8:1.0 19:1.0 21:1.0 25:1.0 33:1.0 34:1.0 36:1.0 48:1.0 51:1.0 53:1.0 57:1.0 67:1.0 76:1.0 78:1.0 81:1.0 84:1.0 86:1.0 92:1.0 103:1.0 107:1.0
1.0 3:1.0 7:1.0 19:1.0 21:1.0 28:1.0 33:1.0 34:1.0 36:1.0 40:1.0 50:1.0 53:1.0 57:1.0 67:1.0 76:1.0 78:1.0 81:1.0 83:1.0 86:1.0 96:1.0 104:1.0 108:1.0
0.5068027828219646 6:1.0 8:1.0 14:1.0 21:1.0 25:1.0 33:1.0 34:1.0 36:1.0 48:1.0 51:1.0 53:1.0 57:1.0 67:1.0 76:1.0 78:1.0 81:1.0 84:1.0 86:1.0 92:1.0 104:1.0 111:1.0
1.0 6:1.0 8:1.0 14:1.0 21:1.0 25:1.0 33:1.0 34:1.0 36:1.0 48:1.0 51:1.0 53:1.0 59:1.0 67:1.0 76:1.0 78:1.0 81:1.0 84:1.0 86:1.0 92:1.0 103:1.0 107:1.0
1.0 6:1.0 8:1.0 19:1.0 21:1.0 25:1.0 33:1.0 34:1.0 36:1.0 48:1.0 51:1.0 53:1.0 57:1.0 67:1.0 76:1.0 78:1.0 81:1.0 84:1.0 86:1.0 92:1.0 103:1.0 107:1.0
1.0 3:1.0 7:1.0 12:1.0 21:1.0 28:1.0 33:1.0 34:1.0 36:1.0 48:1.0 50:1.0 53:1.0 57:1.0 67:1.0 76:1.0 78:1.0 81:1.0 83:1.0 86:1.0 96:1.0 104:1.0 108:1.0
1.0 6:1.0 8:1.0 19:1.0 21:1.0 25:1.0 33:1.0 34:1.0 36:1.0 48:1.0 51:1.0 55:1.0 57:1.0 67:1.0 76:1.0 78:1.0 81:1.0 84:1.0 86:1.0 92:1.0 103:1.0 107:1.0
1.0 2:1.0 8:1.0 16:1.0 21:1.0 28:1.0 33:1.0 34:1.0 36:1.0 48:1.0 50:1.0 53:1.0 57:1.0 67:1.0 76:1.0 78:1.0 81:1.0 83:1.0 86:1.0 96:1.0 104:1.0 107:1.0
1.0 3:1.0 7:1.0 19:1.0 21:1.0 28:1.0 33:1.0 34:1.0 36:1.0 46:1.0 50:1.0 53:1.0 57:1.0 67:1.0 76:1.0 78:1.0 81:1.0 83:1.0 86:1.0 96:1.0 104:1.0 108:1.0
1.0 3:1.0 8:1.0 19:1.0 21:1.0 25:1.0 33:1.0 34:1.0 36:1.0 45:1.0 51:1.0 53:1.0 59:1.0 67:1.0 76:1.0 78:1.0 81:1.0 84:1.0 86:1.0 92:1.0 103:1.0 111:1.0
1.0 3:1.0 7:1.0 16:1.0 21:1.0 28:1.0 33:1.0 34:1.0 36:1.0 40:1.0 50:1.0 53:1.0 57:1.0 67:1.0 76:1.0 78:1.0 81:1.0 83:1.0 86:1.0 96:1.0 104:1.0 108:1.0
1.0 3:1.0 7:1.0 19:1.0 21:1.0 28:1.0 33:1.0 34:1.0 36:1.0 48:1.0 50:1.0 53:1.0 57:1.0 67:1.0 76:1.0 78:1.0 81:1.0 83:1.0 86:1.0 96:1.0 104:1.0 108:1.0
1.0 6:1.0 8:1.0 19:1.0 21:1.0 25:1.0 33:1.0 34:1.0 36:1.0 45:1.0 51:1.0 53:1.0 59:1.0 67:1.0 76:1.0 78:1.0 81:1.0 84:1.0 86:1.0 92:1.0 103:1.0 107:1.0
1.0 6:1.0 8:1.0 19:1.0 21:1.0 25:1.0 33:1.0 34:1.0 36:1.0 45:1.0 51:1.0 55:1.0 59:1.0 67:1.0 76:1.0 78:1.0 81:1.0 84:1.0 86:1.0 92:1.0 103:1.0 107:1.0
1.0 1:1.0 7:1.0 19:1.0 21:1.0 28:1.0 33:1.0 35:1.0 37:1.0 48:1.0 50:1.0 53:1.0 57:1.0 67:1.0 76:1.0 78:1.0 81:1.0 84:1.0 86:1.0 98:1.0 101:1.0 109:1.0
1.0 3:1.0 8:1.0 14:1.0 21:1.0 25:1.0 33:1.0 34:1.0 36:1.0 48:1.0 51:1.0 53:1.0 59:1.0 67:1.0 76:1.0 78:1.0 81:1.0 84:1.0 86:1.0 92:1.0 103:1.0 107:1.0
0.25921236804718734 6:1.0 8:1.0 14:1.0 21:1.0 25:1.0 33:1.0 34:1.0 36:1.0 48:1.0 51:1.0 53:1.0 57:1.0 67:1.0 76:1.0 78:1.0 81:1.0 84:1.0 86:1.0 92:1.0 103:1.0 107:1.0
0.7095991144175889 3:1.0 8:1.0 19:1.0 21:1.0 25:1.0 33:1.0 34:1.0 36:1.0 45:1.0 51:1.0 53:1.0 59:1.0 67:1.0 76:1.0 78:1.0 81:1.0 84:1.0 86:1.0 92:1.0 104:1.0 111:1.0
1.0 6:1.0 8:1.0 19:1.0 21:1.0 25:1.0 33:1.0 34:1.0 36:1.0 48:1.0 51:1.0 53:1.0 59:1.0 67:1.0 76:1.0 78:1.0 81:1.0 84:1.0 86:1.0 92:1.0 104:1.0 111:1.0
1.0 3:1.0 8:1.0 12:1.0 21:1.0 28:1.0 33:1.0 34:1.0 36:1.0 40:1.0 50:1.0 53:1.0 57:1.0 67:1.0 76:1.0 78:1.0 81:1.0 83:1.0 86:1.0 96:1.0 104:1.0 108:1.0
1.0 2:1.0 7:1.0 19:1.0 21:1.0 28:1.0 33:1.0 34:1.0 36:1.0 46:1.0 50:1.0 53:1.0 57:1.0 67:1.0 76:1.0 78:1.0 81:1.0 83:1.0 86:1.0 96:1.0 104:1.0 108:1.0
1.0 2:1.0 7:1.0 16:1.0 21:1.0 28:1.0 33:1.0 34:1.0 36:1.0 40:1.0 50:1.0 53:1.0 57:1.0 67:1.0 76:1.0 78:1.0 81:1.0 83:1.0 86:1.0 96:1.0 104:1.0 107:1.0
1.0 6:1.0 8:1.0 19:1.0 21:1.0 25:1.0 33:1.0 34:1.0 36:1.0 48:1.0 51:1.0 53:1.0 57:1.0 67:1.0 76:1.0 78:1.0 81:1.0 84:1.0 86:1.0 92:1.0 103:1.0 111:1.0
1.0 2:1.0 7:1.0 16:1.0 21:1.0 28:1.0 33:1.0 34:1.0 36:1.0 48:1.0 50:1.0 53:1.0 57:1.0 67:1.0 76:1.0 78:1.0 81:1.0 83:1.0 86:1.0 96:1.0 104:1.0 108:1.0
0.011860338941625545 3:1.0 7:1.0 16:1.0 21:1.0 28:1.0 33:1.0 34:1.0 36:1.0 46:1.0 50:1.0 53:1.0 57:1.0 67:1.0 76:1.0 78:1.0 81:1.0 83:1.0 86:1.0 96:1.0 104:1.0 108:1.0
1.0 3:1.0 8:1.0 19:1.0 21:1.0 28:1.0 33:1.0 34:1.0 36:1.0 46:1.0 50:1.0 53:1.0 57:1.0 67:1.0 76:1.0 78:1.0 81:1.0 83:1.0 86:1.0 96:1.0 104:1.0 108:1.0
1.0 3:1.0 8:1.0 19:1.0 21:1.0 28:1.0 33:1.0 34:1.0 36:1.0 46:1.0 50:1.0 53:1.0 57:1.0 67:1.0 76:1.0 78:1.0 81:1.0 83:1.0 86:1.0 96:1.0 104:1.0 107:1.0
1.0 2:1.0 8:1.0 19:1.0 21:1.0 28:1.0 33:1.0 34:1.0 36:1.0 40:1.0 50:1.0 53:1.0 57:1.0 67:1.0 76:1.0 78:1.0 81:1.0 83:1.0 86:1.0 96:1.0 104:1.0 107:1.0
1.0 3:1.0 7:1.0 19:1.0 21:1.0 28:1.0 33:1.0 34:1.0 36:1.0 40:1.0 50:1.0 53:1.0 57:1.0 67:1.0 76:1.0 78:1.0 81:1.0 83:1.0 86:1.0 96:1.0 104:1.0 107:1.0
1.0 3:1.0 7:1.0 20:1.0 22:1.0 28:1.0 33:1.0 34:1.0 37:1.0 48:1.0 50:1.0 54:1.0 56:1.0 67:1.0 74:1.0 78:1.0 81:1.0 84:1.0 88:1.0 98:1.0 104:1.0 106:1.0
1.0 6:1.0 8:1.0 19:1.0 21:1.0 25:1.0 33:1.0 34:1.0 36:1.0 48:1.0 51:1.0 55:1.0 59:1.0 67:1.0 76:1.0 78:1.0 81:1.0 84:1.0 86:1.0 92:1.0 103:1.0 107:1.0
1.0 6:1.0 10:1.0 15:1.0 22:1.0 28:1.0 33:1.0 34:1.0 37:1.0 48:1.0 50:1.0 54:1.0 56:1.0 67:1.0 77:1.0 78:1.0 81:1.0 84:1.0 88:1.0 98:1.0 104:1.0 106:1.0
1.0 3:1.0 10:1.0 20:1.0 22:1.0 28:1.0 33:1.0 34:1.0 37:1.0 48:1.0 50:1.0 54:1.0 56:1.0 67:1.0 74:1.0 78:1.0 81:1.0 84:1.0 88:1.0 98:1.0 104:1.0 106:1.0
1.0 6:1.0 8:1.0 14:1.0 21:1.0 25:1.0 33:1.0 34:1.0 36:1.0 45:1.0 51:1.0 53:1.0 59:1.0 67:1.0 76:1.0 78:1.0 81:1.0 84:1.0 86:1.0 92:1.0 104:1.0 111:1.0
1.0 2:1.0 7:1.0 12:1.0 21:1.0 28:1.0 33:1.0 34:1.0 36:1.0 48:1.0 50:1.0 53:1.0 57:1.0 67:1.0 76:1.0 78:1.0 81:1.0 83:1.0 86:1.0 96:1.0 104:1.0 107:1.0
1.0 4:1.0 9:1.0 19:1.0 21:1.0 28:1.0 33:1.0 35:1.0 37:1.0 48:1.0 50:1.0 53:1.0 57:1.0 67:1.0 76:1.0 78:1.0 81:1.0 84:1.0 86:1.0 98:1.0 101:1.0 109:1.0
1.0 2:1.0 8:1.0 19:1.0 21:1.0 28:1.0 33:1.0 34:1.0 36:1.0 46:1.0 50:1.0 53:1.0 57:1.0 67:1.0 76:1.0 78:1.0 81:1.0 83:1.0 86:1.0 96:1.0 104:1.0 108:1.0
0.30720972447405775 6:1.0 8:1.0 19:1.0 21:1.0 25:1.0 33:1.0 34:1.0 36:1.0 41:1.0 51:1.0 53:1.0 59:1.0 67:1.0 76:1.0 78:1.0 81:1.0 84:1.0 86:1.0 92:1.0 104:1.0 111:1.0
1.0 3:1.0 7:1.0 19:1.0 21:1.0 28:1.0 33:1.0 34:1.0 36:1.0 48:1.0 50:1.0 53:1.0 57:1.0 67:1.0 76:1.0 78:1.0 81:1.0 83:1.0 86:1.0 96:1.0 104:1.0 107:1.0
1.0 3:1.0 8:1.0 14:1.0 21:1.0 25:1.0 33:1.0 34:1.0 36:1.0 45:1.0 51:1.0 53:1.0 59:1.0 67:1.0 76:1.0 78:1.0 81:1.0 84:1.0 86:1.0 92:1.0 103:1.0 107:1.0
1.0 3:1.0 7:1.0 12:1.0 21:1.0 28:1.0 33:1.0 34:1.0 36:1.0 40:1.0 50:1.0 53:1.0 57:1.0 67:1.0 76:1.0 78:1.0 81:1.0 83:1.0 86:1.0 96:1.0 104:1.0 108:1.0
1.0 3:1.0 8:1.0 14:1.0 21:1.0 25:1.0 33:1.0 34:1.0 36:1.0 45:1.0 51:1.0 53:1.0 59:1.0 67:1.0 76:1.0 78:1.0 81:1.0 84:1.0 86:1.0 92:1.0 104:1.0 111:1.0
1.0 3:1.0 8:1.0 19:1.0 21:1.0 25:1.0 33:1.0 34:1.0 36:1.0 48:1.0 51:1.0 53:1.0 59:1.0 67:1.0 76:1.0 78:1.0 81:1.0 84:1.0 86:1.0 92:1.0 103:1.0 107:1.0
0.042130072413625534 6:1.0 7:1.0 15:1.0 22:1.0 30:1.0 33:1.0 34:1.0 37:1.0 38:1.0 51:1.0 53:1.0 58:1.0 67:1.0 76:1.0 78:1.0 81:1.0 84:1.0 88:1.0 98:1.0 104:1.0 109:1.0
1.0 3:1.0 8:1.0 16:1.0 21:1.0 28:1.0 33:1.0 34:1.0 36:1.0 40:1.0 50:1.0 53:1.0 57:1.0 67:1.0 76:1.0 78:1.0 81:1.0 83:1.0 86:1.0 96:1.0 104:1.0 107:1.0
1.0 2:1.0 8:1.0 16:1.0 21:1.0 28:1.0 33:1.0 34:1.0 36:1.0 40:1.0 50:1.0 53:1.0 57:1.0 67:1.0 76:1.0 78:1.0 81:1.0 83:1.0 86:1.0 96:1.0 104:1.0 107:1.0
1.0 3:1.0 7:1.0 15:1.0 22:1.0 28:1.0 33:1.0 34:1.0 37:1.0 48:1.0 50:1.0 54:1.0 56:1.0 67:1.0 77:1.0 78:1.0 81:1.0 84:1.0 88:1.0 98:1.0 104:1.0 106:1.0
1.0 3:1.0 8:1.0 12:1.0 21:1.0 28:1.0 33:1.0 34:1.0 36:1.0 48:1.0 50:1.0 53:1.0 57:1.0 67:1.0 76:1.0 78:1.0 81:1.0 83:1.0 86:1.0 96:1.0 104:1.0 107:1.0
1.0 2:1.0 8:1.0 16:1.0 21:1.0 28:1.0 33:1.0 34:1.0 36:1.0 48:1.0 50:1.0 53:1.0 57:1.0 67:1.0 76:1.0 78:1.0 81:1.0 83:1.0 86:1.0 96:1.0 104:1.0 108:1.0
1.0 2:1.0 7:1.0 19:1.0 21:1.0 28:1.0 33:1.0 34:1.0 36:1.0 40:1.0 50:1.0 53:1.0 57:1.0 67:1.0 76:1.0 78:1.0 81:1.0 83:1.0 86:1.0 96:1.0 104:1.0 107:1.0
1.0 6:1.0 7:1.0 20:1.0 22:1.0 28:1.0 33:1.0 34:1.0 37:1.0 48:1.0 50:1.0 54:1.0 56:1.0 67:1.0 77:1.0 78:1.0 81:1.0 84:1.0 88:1.0 98:1.0 104:1.0 106:1.0
1.0 3:1.0 8:1.0 19:1.0 21:1.0 25:1.0 33:1.0 34:1.0 36:1.0 41:1.0 51:1.0 53:1.0 59:1.0 67:1.0 76:1.0 78:1.0 81:1.0 84:1.0 86:1.0 92:1.0 103:1.0 107:1.0
1.0 3:1.0 8:1.0 19:1.0 21:1.0 25:1.0 33:1.0 34:1.0 36:1.0 45:1.0 51:1.0 53:1.0 59:1.0 67:1.0 76:1.0 78:1.0 81:1.0 84:1.0 86:1.0 92:1.0 103:1.0 107:1.0
1.0 6:1.0 8:1.0 19:1.0 21:1.0 25:1.0 33:1.0 34:1.0 36:1.0 48:1.0 51:1.0 53:1.0 59:1.0 67:1.0 76:1.0 78:1.0 81:1.0 84:1.0 86:1.0 92:1.0 103:1.0 107:1.0
1.0 3:1.0 7:1.0 19:1.0 21:1.0 28:1.0 33:1.0 34:1.0 36:1.0 46:1.0 50:1.0 53:1.0 57:1.0 67:1.0 76:1.0 78:1.0 81:1.0 83:1.0 86:1.0 96:1.0 104:1.0 107:1.0
1.0 3:1.0 8:1.0 19:1.0 21:1.0 28:1.0 33:1.0 34:1.0 36:1.0 48:1.0 50:1.0 53:1.0 57:1.0 67:1.0 76:1.0 78:1.0 81:1.0 83:1.0 86:1.0 96:1.0 104:1.0 107:1.0
1.0 2:1.0 8:1.0 19:1.0 21:1.0 28:1.0 33:1.0 34:1.0 36:1.0 48:1.0 50:1.0 53:1.0 57:1.0 67:1.0 76:1.0 78:1.0 81:1.0 83:1.0 86:1.0 96:1.0 104:1.0 108:1.0
1.0 2:1.0 8:1.0 12:1.0 21:1.0 28:1.0 33:1.0 34:1.0 36:1.0 48:1.0 50:1.0 53:1.0 57:1.0 67:1.0 76:1.0 78:1.0 81:1.0 83:1.0 86:1.0 96:1.0 104:1.0 108:1.0
1.0 6:1.0 8:1.0 14:1.0 21:1.0 25:1.0 33:1.0 34:1.0 36:1.0 48:1.0 51:1.0 53:1.0 57:1.0 67:1.0 76:1.0 78:1.0 81:1.0 84:1.0 86:1.0 92:1.0 103:1.0 111:1.0
1.0 3:1.0 8:1.0 12:1.0 21:1.0 28:1.0 33:1.0 34:1.0 36:1.0 40:1.0 50:1.0 53:1.0 57:1.0 67:1.0 76:1.0 78:1.0 81:1.0 83:1.0 86:1.0 96:1.0 104:1.0 107:1.0
1.0 2:1.0 8:1.0 19:1.0 21:1.0 28:1.0 33:1.0 34:1.0 36:1.0 46:1.0 50:1.0 53:1.0 57:1.0 67:1.0 76:1.0 78:1.0 81:1.0 83:1.0 86:1.0 96:1.0 104:1.0 107:1.0
1.0 3:1.0 8:1.0 19:1.0 21:1.0 28:1.0 33:1.0 34:1.0 36:1.0 40:1.0 50:1.0 53:1.0 57:1.0 67:1.0 76:1.0 78:1.0 81:1.0 83:1.0 86:1.0 96:1.0 104:1.0 107:1.0
0.9395631846453889 3:1.0 10:1.0 14:1.0 22:1.0 25:1.0 33:1.0 34:1.0 36:1.0 45:1.0 50:1.0 54:1.0 58:1.0 66:1.0 74:1.0 78:1.0 81:1.0 84:1.0 89:1.0 92:1.0 105:1.0 110:1.0
1.0 6:1.0 8:1.0 19:1.0 21:1.0 25:1.0 33:1.0 34:1.0 36:1.0 41:1.0 51:1.0 53:1.0 59:1.0 67:1.0 76:1.0 78:1.0 81:1.0 84:1.0 86:1.0 92:1.0 103:1.0 107:1.0
1.0 2:1.0 8:1.0 16:1.0 21:1.0 28:1.0 33:1.0 34:1.0 36:1.0 40:1.0 50:1.0 53:1.0 57:1.0 67:1.0 76:1.0 78:1.0 81:1.0 83:1.0 86:1.0 96:1.0 104:1.0 108:1.0
1.0 2:1.0 8:1.0 19:1.0 21:1.0 28:1.0 33:1.0 34:1.0 36:1.0 48:1.0 50:1.0 53:1.0 57:1.0 67:1.0 76:1.0 78:1.0 81:1.0 83:1.0 86:1.0 96:1.0 104:1.0 107:1.0
1.0 2:1.0 7:1.0 20:1.0 22:1.0 28:1.0 33:1.0 34:1.0 37:1.0 48:1.0 50:1.0 54:1.0 56:1.0 67:1.0 74:1.0 78:1.0 81:1.0 84:1.0 88:1.0 98:1.0 104:1.0 106:1.0
1.0 2:1.0 7:1.0 16:1.0 21:1.0 28:1.0 33:1.0 34:1.0 36:1.0 40:1.0 50:1.0 53:1.0 57:1.0 67:1.0 76:1.0 78:1.0 81:1.0 83:1.0 86:1.0 96:1.0 104:1.0 108:1.0
1.0 3:1.0 7:1.0 12:1.0 21:1.0 28:1.0 33:1.0 34:1.0 36:1.0 48:1.0 50:1.0 53:1.0 57:1.0 67:1.0 76:1.0 78:1.0 81:1.0 83:1.0 86:1.0 96:1.0 104:1.0 107:1.0
1.0 2:1.0 10:1.0 15:1.0 22:1.0 28:1.0 33:1.0 34:1.0 37:1.0 48:1.0 50:1.0 54:1.0 56:1.0 67:1.0 74:1.0 78:1.0 81:1.0 84:1.0 88:1.0 98:1.0 104:1.0 106:1.0
1.0 3:1.0 7:1.0 12:1.0 21:1.0 28:1.0 33:1.0 34:1.0 36:1.0 40:1.0 50:1.0 53:1.0 57:1.0 67:1.0 76:1.0 78:1.0 81:1.0 83:1.0 86:1.0 96:1.0 104:1.0 107:1.0
1.0 4:1.0 10:1.0 15:1.0 22:1.0 28:1.0 33:1.0 34:1.0 37:1.0 48:1.0 50:1.0 54:1.0 56:1.0 67:1.0 77:1.0 78:1.0 81:1.0 84:1.0 88:1.0 98:1.0 104:1.0 106:1.0
1.0 6:1.0 8:1.0 14:1.0 21:1.0 25:1.0 33:1.0 34:1.0 36:1.0 45:1.0 51:1.0 53:1.0 59:1.0 67:1.0 76:1.0 78:1.0 81:1.0 84:1.0 86:1.0 92:1.0 103:1.0 107:1.0
1.0 3:1.0 8:1.0 16:1.0 21:1.0 28:1.0 33:1.0 34:1.0 36:1.0 40:1.0 50:1.0 53:1.0 57:1.0 67:1.0 76:1.0 78:1.0 81:1.0 83:1.0 86:1.0 96:1.0 104:1.0 108:1.0
1.0 3:1.0 8:1.0 16:1.0 21:1.0 28:1.0 33:1.0 34:1.0 36:1.0 46:1.0 50:1.0 53:1.0 57:1.0 67:1.0 76:1.0 78:1.0 81:1.0 83:1.0 86:1.0 96:1.0 104:1.0 107:1.0
1.0 2:1.0 7:1.0 12:1.0 21:1.0 28:1.0 33:1.0 34:1.0 36:1.0 40:1.0 50:1.0 53:1.0 57:1.0 67:1.0 76:1.0 78:1.0 81:1.0 83:1.0 86:1.0 96:1.0 104:1.0 107:1.0
1.0 3:1.0 7:1.0 13:1.0 22:1.0 31:1.0 33:1.0 34:1.0 37:1.0 38:1.0 51:1.0 53:1.0 57:1.0 67:1.0 76:1.0 78:1.0 81:1.0 84:1.0 88:1.0 98:1.0 104:1.0 110:1.0
0.35603231252689166 3:1.0 8:1.0 15:1.0 22:1.0 31:1.0 33:1.0 34:1.0 37:1.0 38:1.0 51:1.0 53:1.0 57:1.0 66:1.0 75:1.0 78:1.0 81:1.0 84:1.0 88:1.0 98:1.0 104:1.0 109:1.0
0.9508388344059819 3:1.0 7:1.0 15:1.0 22:1.0 30:1.0 33:1.0 34:1.0 37:1.0 38:1.0 51:1.0 53:1.0 57:1.0 67:1.0 76:1.0 78:1.0 81:1.0 84:1.0 88:1.0 98:1.0 104:1.0 110:1.0
0.09719994014478173 3:1.0 7:1.0 15:1.0 22:1.0 31:1.0 33:1.0 34:1.0 37:1.0 38:1.0 51:1.0 53:1.0 57:1.0 66:1.0 75:1.0 78:1.0 81:1.0 84:1.0 88:1.0 98:1.0 104:1.0 109:1.0
0.9669961627235805 3:1.0 7:1.0 13:1.0 22:1.0 30:1.0 33:1.0 34:1.0 37:1.0 38:1.0 51:1.0 53:1.0 57:1.0 67:1.0 76:1.0 78:1.0 81:1.0 84:1.0 88:1.0 98:1.0 104:1.0 109:1.0
0.2274178624856165 6:1.0 7:1.0 13:1.0 22:1.0 31:1.0 33:1.0 34:1.0 37:1.0 38:1.0 51:1.0 53:1.0 57:1.0 67:1.0 76:1.0 78:1.0 81:1.0 84:1.0 88:1.0 98:1.0 104:1.0 110:1.0
0.03445328161104813 3:1.0 7:1.0 15:1.0 22:1.0 30:1.0 33:1.0 34:1.0 37:1.0 38:1.0 51:1.0 53:1.0 57:1.0 67:1.0 75:1.0 78:1.0 81:1.0 84:1.0 88:1.0 98:1.0 104:1.0 109:1.0
1.0 3:1.0 7:1.0 13:1.0 22:1.0 30:1.0 33:1.0 34:1.0 37:1.0 38:1.0 51:1.0 53:1.0 57:1.0 67:1.0 76:1.0 78:1.0 81:1.0 84:1.0 88:1.0 98:1.0 104:1.0 110:1.0
0.33180574691045955 4:1.0 8:1.0 15:1.0 22:1.0 31:1.0 33:1.0 34:1.0 37:1.0 38:1.0 51:1.0 53:1.0 57:1.0 66:1.0 76:1.0 78:1.0 81:1.0 84:1.0 88:1.0 98:1.0 104:1.0 109:1.0
0.006593892062928189 3:1.0 8:1.0 15:1.0 22:1.0 30:1.0 33:1.0 34:1.0 37:1.0 38:1.0 51:1.0 53:1.0 57:1.0 66:1.0 76:1.0 78:1.0 81:1.0 84:1.0 88:1.0 98:1.0 104:1.0 110:1.0
0.23704599829645218 3:1.0 8:1.0 13:1.0 22:1.0 31:1.0 33:1.0 34:1.0 37:1.0 38:1.0 51:1.0 53:1.0 57:1.0 67:1.0 76:1.0 78:1.0 81:1.0 84:1.0 88:1.0 98:1.0 104:1.0 110:1.0
1.0 4:1.0 7:1.0 11:1.0 22:1.0 26:1.0 32:1.0 34:1.0 36:1.0 48:1.0 50:1.0 54:1.0 56:1.0 60:1.0 69:1.0 78:1.0 81:1.0 85:1.0 87:1.0 98:1.0 101:1.0 106:1.0
1.0 3:1.0 7:1.0 15:1.0 22:1.0 31:1.0 33:1.0 34:1.0 37:1.0 38:1.0 51:1.0 53:1.0 57:1.0 67:1.0 76:1.0 78:1.0 81:1.0 84:1.0 88:1.0 98:1.0 104:1.0 109:1.0
0.7774109283916084 3:1.0 8:1.0 15:1.0 22:1.0 31:1.0 33:1.0 34:1.0 37:1.0 38:1.0 51:1.0 53:1.0 57:1.0 67:1.0 76:1.0 78:1.0 81:1.0 84:1.0 88:1.0 98:1.0 104:1.0 110:1.0
1.0 3:1.0 7:1.0 15:1.0 22:1.0 30:1.0 33:1.0 34:1.0 37:1.0 38:1.0 51:1.0 53:1.0 57:1.0 67:1.0 76:1.0 78:1.0 81:1.0 84:1.0 88:1.0 98:1.0 104:1.0 109:1.0
0.78665878793606 3:1.0 8:1.0 15:1.0 22:1.0 30:1.0 33:1.0 34:1.0 37:1.0 38:1.0 51:1.0 53:1.0 57:1.0 67:1.0 76:1.0 78:1.0 81:1.0 84:1.0 88:1.0 98:1.0 104:1.0 109:1.0
0.1440791847422102 3:1.0 7:1.0 15:1.0 22:1.0 31:1.0 33:1.0 34:1.0 37:1.0 38:1.0 51:1.0 53:1.0 57:1.0 66:1.0 76:1.0 78:1.0 81:1.0 84:1.0 88:1.0 98:1.0 104:1.0 109:1.0
0.05182617715649468 3:1.0 8:1.0 15:1.0 22:1.0 31:1.0 33:1.0 34:1.0 37:1.0 38:1.0 51:1.0 53:1.0 57:1.0 66:1.0 76:1.0 78:1.0 81:1.0 84:1.0 88:1.0 98:1.0 104:1.0 110:1.0
0.3378864493234066 6:1.0 7:1.0 13:1.0 22:1.0 30:1.0 33:1.0 34:1.0 37:1.0 38:1.0 51:1.0 53:1.0 57:1.0 67:1.0 76:1.0 78:1.0 81:1.0 84:1.0 88:1.0 98:1.0 104:1.0 110:1.0
0.6511072441456486 3:1.0 8:1.0 15:1.0 22:1.0 30:1.0 33:1.0 34:1.0 37:1.0 38:1.0 51:1.0 53:1.0 57:1.0 67:1.0 76:1.0 78:1.0 81:1.0 84:1.0 88:1.0 98:1.0 104:1.0 110:1.0
0.44741318385165285 3:1.0 8:1.0 15:1.0 22:1.0 31:1.0 33:1.0 34:1.0 37:1.0 38:1.0 51:1.0 53:1.0 57:1.0 67:1.0 76:1.0 78:1.0 81:1.0 84:1.0 88:1.0 98:1.0 104:1.0 109:1.0
1.0 2:1.0 7:1.0 20:1.0 22:1.0 28:1.0 33:1.0 35:1.0 37:1.0 49:1.0 50:1.0 52:1.0 56:1.0 68:1.0 77:1.0 78:1.0 79:1.0 84:1.0 88:1.0 98:1.0 101:1.0 109:1.0
1.0 4:1.0 8:1.0 15:1.0 22:1.0 30:1.0 33:1.0 34:1.0 37:1.0 38:1.0 51:1.0 53:1.0 57:1.0 67:1.0 76:1.0 78:1.0 81:1.0 84:1.0 88:1.0 98:1.0 104:1.0 110:1.0
0.04698260374558177 3:1.0 7:1.0 15:1.0 22:1.0 31:1.0 33:1.0 34:1.0 37:1.0 38:1.0 51:1.0 53:1.0 58:1.0 67:1.0 76:1.0 78:1.0 81:1.0 84:1.0 88:1.0 98:1.0 104:1.0 109:1.0
1.0 4:1.0 8:1.0 15:1.0 22:1.0 31:1.0 33:1.0 34:1.0 37:1.0 38:1.0 51:1.0 53:1.0 57:1.0 67:1.0 76:1.0 78:1.0 81:1.0 84:1.0 88:1.0 98:1.0 104:1.0 109:1.0
0.6835277238979522 4:1.0 7:1.0 11:1.0 22:1.0 26:1.0 33:1.0 34:1.0 36:1.0 48:1.0 50:1.0 54:1.0 56:1.0 60:1.0 69:1.0 78:1.0 81:1.0 85:1.0 87:1.0 98:1.0 101:1.0 106:1.0
1.0 3:1.0 7:1.0 11:1.0 22:1.0 26:1.0 33:1.0 34:1.0 36:1.0 48:1.0 50:1.0 54:1.0 56:1.0 60:1.0 69:1.0 78:1.0 81:1.0 85:1.0 87:1.0 98:1.0 101:1.0 106:1.0
0.023792355189559078 4:1.0 8:1.0 15:1.0 22:1.0 30:1.0 33:1.0 34:1.0 37:1.0 38:1.0 51:1.0 53:1.0 57:1.0 66:1.0 76:1.0 78:1.0 81:1.0 84:1.0 88:1.0 98:1.0 104:1.0 110:1.0
1.0 3:1.0 7:1.0 15:1.0 22:1.0 31:1.0 33:1.0 34:1.0 37:1.0 38:1.0 51:1.0 53:1.0 57:1.0 67:1.0 76:1.0 78:1.0 81:1.0 84:1.0 88:1.0 98:1.0 104:1.0 110:1.0
0.9553867407645563 3:1.0 7:1.0 15:1.0 22:1.0 26:1.0 32:1.0 34:1.0 36:1.0 48:1.0 50:1.0 54:1.0 56:1.0 60:1.0 69:1.0 78:1.0 81:1.0 85:1.0 87:1.0 98:1.0 101:1.0 106:1.0
1.0 4:1.0 7:1.0 20:1.0 22:1.0 28:1.0 33:1.0 35:1.0 37:1.0 49:1.0 50:1.0 52:1.0 56:1.0 68:1.0 77:1.0 78:1.0 79:1.0 84:1.0 88:1.0 98:1.0 101:1.0 109:1.0
1.0 3:1.0 7:1.0 20:1.0 22:1.0 28:1.0 33:1.0 35:1.0 37:1.0 48:1.0 50:1.0 52:1.0 56:1.0 68:1.0 77:1.0 78:1.0 79:1.0 84:1.0 88:1.0 98:1.0 101:1.0 109:1.0
1.0 6:1.0 7:1.0 11:1.0 22:1.0 26:1.0 32:1.0 34:1.0 36:1.0 48:1.0 50:1.0 54:1.0 56:1.0 60:1.0 69:1.0 78:1.0 81:1.0 85:1.0 87:1.0 98:1.0 101:1.0 106:1.0
1.0 1:1.0 7:1.0 20:1.0 22:1.0 28:1.0 33:1.0 35:1.0 37:1.0 49:1.0 50:1.0 52:1.0 56:1.0 68:1.0 77:1.0 78:1.0 79:1.0 84:1.0 88:1.0 98:1.0 101:1.0 109:1.0
0.1875333520261865 4:1.0 8:1.0 13:1.0 22:1.0 31:1.0 33:1.0 34:1.0 37:1.0 38:1.0 51:1.0 53:1.0 57:1.0 67:1.0 76:1.0 78:1.0 81:1.0 84:1.0 88:1.0 98:1.0 104:1.0 110:1.0
1.0 3:1.0 7:1.0 20:1.0 22:1.0 28:1.0 33:1.0 35:1.0 37:1.0 49:1.0 50:1.0 52:1.0 56:1.0 68:1.0 77:1.0 78:1.0 79:1.0 84:1.0 88:1.0 98:1.0 101:1.0 109:1.0
0.7370466229118265 4:1.0 8:1.0 15:1.0 22:1.0 30:1.0 33:1.0 34:1.0 37:1.0 38:1.0 51:1.0 53:1.0 57:1.0 66:1.0 76:1.0 78:1.0 81:1.0 84:1.0 88:1.0 98:1.0 104:1.0 109:1.0
1.0 2:1.0 7:1.0 20:1.0 22:1.0 28:1.0 33:1.0 35:1.0 37:1.0 48:1.0 50:1.0 52:1.0 56:1.0 68:1.0 77:1.0 78:1.0 79:1.0 84:1.0 88:1.0 98:1.0 101:1.0 109:1.0
0.3089924222029758 4:1.0 7:1.0 15:1.0 22:1.0 30:1.0 33:1.0 34:1.0 37:1.0 38:1.0 51:1.0 53:1.0 57:1.0 67:1.0 76:1.0 78:1.0 81:1.0 84:1.0 88:1.0 98:1.0 104:1.0 109:1.0
0.20923760765041022 3:1.0 7:1.0 13:1.0 22:1.0 31:1.0 33:1.0 34:1.0 37:1.0 38:1.0 51:1.0 53:1.0 57:1.0 66:1.0 76:1.0 78:1.0 81:1.0 84:1.0 88:1.0 98:1.0 104:1.0 110:1.0
1.0 1:1.0 7:1.0 20:1.0 22:1.0 28:1.0 33:1.0 35:1.0 37:1.0 48:1.0 50:1.0 52:1.0 56:1.0 68:1.0 77:1.0 78:1.0 79:1.0 84:1.0 88:1.0 98:1.0 101:1.0 109:1.0
0.4677551217783582 6:1.0 7:1.0 11:1.0 22:1.0 26:1.0 33:1.0 34:1.0 36:1.0 48:1.0 50:1.0 54:1.0 56:1.0 60:1.0 69:1.0 78:1.0 81:1.0 85:1.0 87:1.0 98:1.0 101:1.0 106:1.0
-1.0 2:1.0 8:1.0 19:1.0 21:1.0 27:1.0 33:1.0 34:1.0 36:1.0 40:1.0 50:1.0 53:1.0 57:1.0 67:1.0 76:1.0 78:1.0 81:1.0 84:1.0 86:1.0 93:1.0 103:1.0 108:1.0
-1.0 6:1.0 8:1.0 20:1.0 21:1.0 23:1.0 33:1.0 35:1.0 37:1.0 44:1.0 51:1.0 53:1.0 57:1.0 67:1.0 76:1.0 78:1.0 81:1.0 84:1.0 86:1.0 95:1.0 104:1.0 106:1.0
-0.8527877662595686 6:1.0 7:1.0 15:1.0 21:1.0 23:1.0 33:1.0 34:1.0 36:1.0 48:1.0 50:1.0 53:1.0 56:1.0 67:1.0 76:1.0 78:1.0 81:1.0 84:1.0 86:1.0 93:1.0 103:1.0 107:1.0
-0.3131765479083933 5:1.0 10:1.0 14:1.0 22:1.0 28:1.0 33:1.0 34:1.0 37:1.0 42:1.0 50:1.0 53:1.0 57:1.0 67:1.0 76:1.0 78:1.0 81:1.0 84:1.0 86:1.0 95:1.0 104:1.0 111:1.0
-1.0 3:1.0 7:1.0 20:1.0 21:1.0 23:1.0 33:1.0 34:1.0 36:1.0 48:1.0 50:1.0 53:1.0 56:1.0 67:1.0 76:1.0 78:1.0 81:1.0 84:1.0 86:1.0 95:1.0 103:1.0 107:1.0
-1.0 6:1.0 10:1.0 14:1.0 22:1.0 28:1.0 33:1.0 34:1.0 37:1.0 45:1.0 50:1.0 53:1.0 57:1.0 67:1.0 76:1.0 78:1.0 81:1.0 84:1.0 86:1.0 95:1.0 104:1.0 111:1.0
-1.0 2:1.0 7:1.0 19:1.0 21:1.0 27:1.0 33:1.0 34:1.0 36:1.0 40:1.0 50:1.0 53:1.0 57:1.0 67:1.0 76:1.0 78:1.0 81:1.0 84:1.0 86:1.0 95:1.0 103:1.0 108:1.0
-1.0 3:1.0 8:1.0 20:1.0 21:1.0 27:1.0 33:1.0 35:1.0 37:1.0 45:1.0 51:1.0 53:1.0 57:1.0 67:1.0 76:1.0 78:1.0 81:1.0 84:1.0 86:1.0 95:1.0 104:1.0 106:1.0
-1.0 6:1.0 8:1.0 19:1.0 21:1.0 27:1.0 33:1.0 35:1.0 37:1.0 44:1.0 51:1.0 53:1.0 57:1.0 67:1.0 76:1.0 78:1.0 81:1.0 84:1.0 86:1.0 97:1.0 104:1.0 106:1.0
-1.0 6:1.0 7:1.0 20:1.0 21:1.0 27:1.0 33:1.0 34:1.0 36:1.0 48:1.0 50:1.0 53:1.0 56:1.0 67:1.0 76:1.0 78:1.0 81:1.0 84:1.0 86:1.0 93:1.0 103:1.0 107:1.0
-0.9880518939340223 6:1.0 8:1.0 19:1.0 21:1.0 23:1.0 33:1.0 34:1.0 36:1.0 40:1.0 50:1.0 53:1.0 57:1.0 67:1.0 76:1.0 78:1.0 81:1.0 84:1.0 86:1.0 95:1.0 103:1.0 107:1.0
-1.0 3:1.0 7:1.0 15:1.0 21:1.0 27:1.0 33:1.0 34:1.0 36:1.0 45:1.0 50:1.0 53:1.0 56:1.0 67:1.0 76:1.0 78:1.0 81:1.0 84:1.0 86:1.0 95:1.0 103:1.0 107:1.0
-0.5906381652613666 2:1.0 8:1.0 19:1.0 21:1.0 23:1.0 33:1.0 34:1.0 36:1.0 40:1.0 50:1.0 53:1.0 57:1.0 67:1.0 76:1.0 78:1.0 81:1.0 84:1.0 86:1.0 95:1.0 103:1.0 107:1.0
-1.0 3:1.0 7:1.0 20:1.0 21:1.0 27:1.0 33:1.0 34:1.0 36:1.0 48:1.0 50:1.0 53:1.0 56:1.0 67:1.0 76:1.0 78:1.0 81:1.0 84:1.0 86:1.0 95:1.0 103:1.0 107:1.0
-1.0 2:1.0 7:1.0 19:1.0 21:1.0 23:1.0 33:1.0 34:1.0 36:1.0 40:1.0 50:1.0 53:1.0 57:1.0 67:1.0 76:1.0 78:1.0 81:1.0 84:1.0 86:1.0 95:1.0 103:1.0 108:1.0
-0.12478680733811964 6:1.0 10:1.0 19:1.0 21:1.0 23:1.0 33:1.0 35:1.0 37:1.0 48:1.0 51:1.0 53:1.0 57:1.0 67:1.0 76:1.0 78:1.0 81:1.0 84:1.0 86:1.0 97:1.0 104:1.0 106:1.0
-1.0 6:1.0 8:1.0 20:1.0 21:1.0 27:1.0 33:1.0 35:1.0 37:1.0 45:1.0 51:1.0 53:1.0 57:1.0 67:1.0 76:1.0 78:1.0 81:1.0 84:1.0 86:1.0 97:1.0 104:1.0 106:1.0
-0.15059414319174969 2:1.0 7:1.0 19:1.0 21:1.0 27:1.0 33:1.0 34:1.0 36:1.0 48:1.0 50:1.0 53:1.0 57:1.0 67:1.0 76:1.0 78:1.0 81:1.0 84:1.0 86:1.0 95:1.0 103:1.0 108:1.0
-1.0 3:1.0 8:1.0 19:1.0 21:1.0 27:1.0 33:1.0 35:1.0 37:1.0 48:1.0 51:1.0 53:1.0 57:1.0 67:1.0 76:1.0 78:1.0 81:1.0 84:1.0 86:1.0 97:1.0 104:1.0 106:1.0
-1.0 3:1.0 8:1.0 19:1.0 21:1.0 23:1.0 33:1.0 35:1.0 37:1.0 45:1.0 51:1.0 53:1.0 57:1.0 67:1.0 76:1.0 78:1.0 81:1.0 84:1.0 86:1.0 95:1.0 104:1.0 106:1.0
-1.0 6:1.0 8:1.0 19:1.0 21:1.0 23:1.0 33:1.0 35:1.0 37:1.0 48:1.0 51:1.0 53:1.0 57:1.0 67:1.0 76:1.0 78:1.0 81:1.0 84:1.0 86:1.0 97:1.0 104:1.0 106:1.0
-0.4502450131594939 6:1.0 7:1.0 15:1.0 21:1.0 27:1.0 33:1.0 34:1.0 36:1.0 48:1.0 50:1.0 53:1.0 56:1.0 67:1.0 76:1.0 78:1.0 81:1.0 84:1.0 86:1.0 93:1.0 103:1.0 107:1.0
-1.0 2:1.0 8:1.0 19:1.0 21:1.0 23:1.0 33:1.0 34:1.0 36:1.0 48:1.0 50:1.0 53:1.0 57:1.0 67:1.0 76:1.0 78:1.0 81:1.0 84:1.0 86:1.0 93:1.0 103:1.0 108:1.0
-1.0 6:1.0 10:1.0 14:1.0 22:1.0 28:1.0 33:1.0 34:1.0 37:1.0 40:1.0 50:1.0 53:1.0 57:1.0 67:1.0 76:1.0 78:1.0 81:1.0 84:1.0 86:1.0 95:1.0 105:1.0 111:1.0
-0.2543002277665038 3:1.0 7:1.0 20:1.0 21:1.0 27:1.0 33:1.0 34:1.0 36:1.0 45:1.0 50:1.0 53:1.0 56:1.0 67:1.0 76:1.0 78:1.0 81:1.0 84:1.0 86:1.0 95:1.0 103:1.0 107:1.0
-1.0 3:1.0 10:1.0 15:1.0 22:1.0 28:1.0 33:1.0 34:1.0 37:1.0 40:1.0 50:1.0 53:1.0 57:1.0 67:1.0 76:1.0 78:1.0 81:1.0 84:1.0 86:1.0 93:1.0 104:1.0 111:1.0
-1.0 2:1.0 8:1.0 19:1.0 21:1.0 27:1.0 33:1.0 34:1.0 36:1.0 40:1.0 50:1.0 53:1.0 57:1.0 67:1.0 76:1.0 78:1.0 81:1.0 84:1.0 86:1.0 95:1.0 103:1.0 108:1.0
-1.0 3:1.0 10:1.0 14:1.0 22:1.0 28:1.0 33:1.0 34:1.0 37:1.0 45:1.0 50:1.0 53:1.0 57:1.0 67:1.0 76:1.0 78:1.0 81:1.0 84:1.0 86:1.0 93:1.0 104:1.0 111:1.0
-1.0 6:1.0 8:1.0 19:1.0 21:1.0 27:1.0 33:1.0 35:1.0 37:1.0 48:1.0 51:1.0 53:1.0 57:1.0 67:1.0 76:1.0 78:1.0 81:1.0 84:1.0 86:1.0 95:1.0 104:1.0 106:1.0
-0.9901426627958847 2:1.0 8:1.0 19:1.0 21:1.0 27:1.0 33:1.0 34:1.0 36:1.0 48:1.0 50:1.0 53:1.0 57:1.0 67:1.0 76:1.0 78:1.0 81:1.0 84:1.0 86:1.0 95:1.0 103:1.0 108:1.0
-1.0 3:1.0 8:1.0 19:1.0 21:1.0 23:1.0 33:1.0 35:1.0 37:1.0 44:1.0 51:1.0 53:1.0 57:1.0 67:1.0 76:1.0 78:1.0 81:1.0 84:1.0 86:1.0 95:1.0 104:1.0 106:1.0
-0.5532377733550183 2:1.0 8:1.0 19:1.0 21:1.0 27:1.0 33:1.0 34:1.0 36:1.0 48:1.0 50:1.0 53:1.0 57:1.0 67:1.0 76:1.0 78:1.0 81:1.0 84:1.0 86:1.0 93:1.0 103:1.0 107:1.0
-0.7836252746129694 2:1.0 8:1.0 19:1.0 21:1.0 23:1.0 33:1.0 34:1.0 36:1.0 42:1.0 50:1.0 53:1.0 57:1.0 67:1.0 76:1.0 78:1.0 81:1.0 84:1.0 86:1.0 93:1.0 103:1.0 108:1.0
-0.6689525907565607 6:1.0 10:1.0 14:1.0 22:1.0 28:1.0 33:1.0 34:1.0 37:1.0 44:1.0 50:1.0 53:1.0 57:1.0 67:1.0 76:1.0 78:1.0 81:1.0 84:1.0 86:1.0 95:1.0 105:1.0 111:1.0
-1.0 5:1.0 10:1.0 14:1.0 22:1.0 28:1.0 33:1.0 34:1.0 37:1.0 45:1.0 50:1.0 53:1.0 57:1.0 67:1.0 76:1.0 78:1.0 81:1.0 84:1.0 86:1.0 95:1.0 104:1.0 111:1.0
-0.0644279128879077 6:1.0 10:1.0 14:1.0 22:1.0 28:1.0 33:1.0 34:1.0 37:1.0 44:1.0 50:1.0 53:1.0 57:1.0 67:1.0 76:1.0 78:1.0 81:1.0 84:1.0 86:1.0 93:1.0 105:1.0 111:1.0
-1.0 3:1.0 10:1.0 15:1.0 22:1.0 28:1.0 33:1.0 34:1.0 37:1.0 42:1.0 50:1.0 53:1.0 57:1.0 67:1.0 76:1.0 78:1.0 81:1.0 84:1.0 86:1.0 93:1.0 104:1.0 111:1.0
-1.0 6:1.0 10:1.0 19:1.0 21:1.0 27:1.0 33:1.0 35:1.0 37:1.0 48:1.0 51:1.0 53:1.0 57:1.0 67:1.0 76:1.0 78:1.0 81:1.0 84:1.0 86:1.0 95:1.0 104:1.0 106:1.0
-1.0 6:1.0 8:1.0 19:1.0 21:1.0 27:1.0 33:1.0 35:1.0 37:1.0 45:1.0 51:1.0 53:1.0 57:1.0 67:1.0 76:1.0 78:1.0 81:1.0 84:1.0 86:1.0 97:1.0 104:1.0 106:1.0
-1.0 5:1.0 10:1.0 15:1.0 22:1.0 28:1.0 33:1.0 34:1.0 37:1.0 40:1.0 50:1.0 53:1.0 57:1.0 67:1.0 76:1.0 78:1.0 81:1.0 84:1.0 86:1.0 95:1.0 104:1.0 111:1.0
-1.0 3:1.0 10:1.0 15:1.0 22:1.0 28:1.0 33:1.0 34:1.0 37:1.0 42:1.0 50:1.0 53:1.0 57:1.0 67:1.0 76:1.0 78:1.0 81:1.0 84:1.0 86:1.0 95:1.0 104:1.0 111:1.0
-1.0 3:1.0 7:1.0 15:1.0 21:1.0 27:1.0 33:1.0 34:1.0 36:1.0 48:1.0 50:1.0 53:1.0 56:1.0 67:1.0 76:1.0 78:1.0 81:1.0 84:1.0 86:1.0 95:1.0 103:1.0 107:1.0
-1.0 3:1.0 10:1.0 14:1.0 22:1.0 28:1.0 33:1.0 34:1.0 37:1.0 40:1.0 50:1.0 53:1.0 57:1.0 67:1.0 76:1.0 78:1.0 81:1.0 84:1.0 86:1.0 93:1.0 104:1.0 111:1.0
-0.9219420673725145 3:1.0 7:1.0 15:1.0 21:1.0 23:1.0 33:1.0 34:1.0 36:1.0 44:1.0 50:1.0 53:1.0 56:1.0 67:1.0 76:1.0 78:1.0 81:1.0 84:1.0 86:1.0 93:1.0 103:1.0 107:1.0
-1.0 6:1.0 10:1.0 14:1.0 22:1.0 28:1.0 33:1.0 34:1.0 37:1.0 40:1.0 50:1.0 53:1.0 57:1.0 67:1.0 76:1.0 78:1.0 81:1.0 84:1.0 86:1.0 93:1.0 105:1.0 111:1.0
-1.0 6:1.0 8:1.0 19:1.0 21:1.0 23:1.0 33:1.0 34:1.0 36:1.0 40:1.0 50:1.0 53:1.0 57:1.0 67:1.0 76:1.0 78:1.0 81:1.0 84:1.0 86:1.0 93:1.0 103:1.0 108:1.0
-0.8108177742387349 3:1.0 8:1.0 20:1.0 21:1.0 23:1.0 33:1.0 35:1.0 37:1.0 45:1.0 51:1.0 53:1.0 57:1.0 67:1.0 76:1.0 78:1.0 81:1.0 84:1.0 86:1.0 95:1.0 104:1.0 106:1.0
-1.0 6:1.0 8:1.0 20:1.0 21:1.0 27:1.0 33:1.0 35:1.0 37:1.0 48:1.0 51:1.0 53:1.0 57:1.0 67:1.0 76:1.0 78:1.0 81:1.0 84:1.0 86:1.0 95:1.0 104:1.0 106:1.0
-0.7434574024071442 2:1.0 7:1.0 19:1.0 21:1.0 27:1.0 33:1.0 34:1.0 36:1.0 42:1.0 50:1.0 53:1.0 57:1.0 67:1.0 76:1.0 78:1.0 81:1.0 84:1.0 86:1.0 95:1.0 103:1.0 108:1.0
-1.0 6:1.0 10:1.0 19:1.0 21:1.0 23:1.0 33:1.0 35:1.0 37:1.0 45:1.0 51:1.0 53:1.0 57:1.0 67:1.0 76:1.0 78:1.0 81:1.0 84:1.0 86:1.0 95:1.0 104:1.0 106:1.0
-1.0 6:1.0 8:1.0 20:1.0 21:1.0 23:1.0 33:1.0 35:1.0 37:1.0 48:1.0 51:1.0 53:1.0 57:1.0 67:1.0 76:1.0 78:1.0 81:1.0 84:1.0 86:1.0 95:1.0 104:1.0 106:1.0
-1.0 6:1.0 10:1.0 19:1.0 21:1.0 27:1.0 33:1.0 35:1.0 37:1.0 44:1.0 51:1.0 53:1.0 57:1.0 67:1.0 76:1.0 78:1.0 81:1.0 84:1.0 86:1.0 95:1.0 104:1.0 106:1.0
-1.0 3:1.0 8:1.0 19:1.0 21:1.0 27:1.0 33:1.0 35:1.0 37:1.0 48:1.0 51:1.0 53:1.0 57:1.0 67:1.0 76:1.0 78:1.0 81:1.0 84:1.0 86:1.0 95:1.0 104:1.0 106:1.0
-1.0 6:1.0 10:1.0 14:1.0 22:1.0 28:1.0 33:1.0 34:1.0 37:1.0 40:1.0 50:1.0 53:1.0 57:1.0 67:1.0 76:1.0 78:1.0 81:1.0 84:1.0 86:1.0 95:1.0 104:1.0 111:1.0
-1.0 5:1.0 10:1.0 14:1.0 22:1.0 28:1.0 33:1.0 34:1.0 37:1.0 40:1.0 50:1.0 53:1.0 57:1.0 67:1.0 76:1.0 78:1.0 81:1.0 84:1.0 86:1.0 95:1.0 104:1.0 111:1.0
-1.0 3:1.0 10:1.0 15:1.0 22:1.0 28:1.0 33:1.0 34:1.0 37:1.0 45:1.0 50:1.0 53:1.0 57:1.0 67:1.0 76:1.0 78:1.0 81:1.0 84:1.0 86:1.0 93:1.0 104:1.0 111:1.0
-0.11249284983328828 6:1.0 7:1.0 20:1.0 21:1.0 23:1.0 33:1.0 34:1.0 36:1.0 48:1.0 50:1.0 53:1.0 56:1.0 67:1.0 76:1.0 78:1.0 81:1.0 84:1.0 86:1.0 95:1.0 103:1.0 107:1.0
-0.6050307226705334 6:1.0 8:1.0 19:1.0 21:1.0 23:1.0 33:1.0 34:1.0 36:1.0 42:1.0 50:1.0 53:1.0 57:1.0 67:1.0 76:1.0 78:1.0 81:1.0 84:1.0 86:1.0 93:1.0 103:1.0 108:1.0
-1.0 6:1.0 10:1.0 14:1.0 22:1.0 28:1.0 33:1.0 34:1.0 37:1.0 42:1.0 50:1.0 53:1.0 57:1.0 67:1.0 76:1.0 78:1.0 81:1.0 84:1.0 86:1.0 95:1.0 104:1.0 111:1.0
-1.0 3:1.0 7:1.0 15:1.0 21:1.0 23:1.0 33:1.0 34:1.0 36:1.0 48:1.0 50:1.0 53:1.0 56:1.0 67:1.0 76:1.0 78:1.0 81:1.0 84:1.0 86:1.0 93:1.0 103:1.0 107:1.0
-1.0 6:1.0 10:1.0 14:1.0 22:1.0 28:1.0 33:1.0 34:1.0 37:1.0 44:1.0 50:1.0 53:1.0 57:1.0 67:1.0 76:1.0 78:1.0 81:1.0 84:1.0 86:1.0 93:1.0 104:1.0 111:1.0
-1.0 6:1.0 8:1.0 19:1.0 21:1.0 23:1.0 33:1.0 34:1.0 36:1.0 40:1.0 50:1.0 53:1.0 57:1.0 67:1.0 76:1.0 78:1.0 81:1.0 84:1.0 86:1.0 95:1.0 103:1.0 108:1.0
-1.0 6:1.0 8:1.0 19:1.0 21:1.0 23:1.0 33:1.0 34:1.0 36:1.0 40:1.0 50:1.0 53:1.0 57:1.0 67:1.0 76:1.0 78:1.0 81:1.0 84:1.0 86:1.0 93:1.0 103:1.0 107:1.0
-0.16562642545742015 6:1.0 10:1.0 19:1.0 21:1.0 27:1.0 33:1.0 35:1.0 37:1.0 45:1.0 51:1.0 53:1.0 57:1.0 67:1.0 76:1.0 78:1.0 81:1.0 84:1.0 86:1.0 97:1.0 104:1.0 106:1.0
-0.0891977911065464 2:1.0 7:1.0 19:1.0 21:1.0 23:1.0 33:1.0 34:1.0 36:1.0 48:1.0 50:1.0 53:1.0 57:1.0 67:1.0 76:1.0 78:1.0 81:1.0 84:1.0 86:1.0 95:1.0 103:1.0 108:1.0
-1.0 3:1.0 7:1.0 15:1.0 21:1.0 27:1.0 33:1.0 34:1.0 36:1.0 48:1.0 50:1.0 53:1.0 56:1.0 67:1.0 76:1.0 78:1.0 81:1.0 84:1.0 86:1.0 93:1.0 103:1.0 107:1.0
-1.0 6:1.0 8:1.0 19:1.0 21:1.0 23:1.0 33:1.0 35:1.0 37:1.0 44:1.0 51:1.0 53:1.0 57:1.0 67:1.0 76:1.0 78:1.0 81:1.0 84:1.0 86:1.0 95:1.0 104:1.0 106:1.0
-1.0 3:1.0 10:1.0 14:1.0 22:1.0 28:1.0 33:1.0 34:1.0 37:1.0 44:1.0 50:1.0 53:1.0 57:1.0 67:1.0 76:1.0 78:1.0 81:1.0 84:1.0 86:1.0 95:1.0 104:1.0 111:1.0
-1.0 3:1.0 8:1.0 19:1.0 21:1.0 27:1.0 33:1.0 35:1.0 37:1.0 44:1.0 51:1.0 53:1.0 57:1.0 67:1.0 76:1.0 78:1.0 81:1.0 84:1.0 86:1.0 95:1.0 104:1.0 106:1.0
-0.35193455879209024 6:1.0 7:1.0 15:1.0 21:1.0 27:1.0 33:1.0 34:1.0 36:1.0 45:1.0 50:1.0 53:1.0 56:1.0 67:1.0 76:1.0 78:1.0 81:1.0 84:1.0 86:1.0 93:1.0 103:1.0 107:1.0
-0.6504345602106526 3:1.0 7:1.0 15:1.0 21:1.0 27:1.0 33:1.0 34:1.0 36:1.0 44:1.0 50:1.0 53:1.0 56:1.0 67:1.0 76:1.0 78:1.0 81:1.0 84:1.0 86:1.0 93:1.0 103:1.0 107:1.0
-1.0 2:1.0 8:1.0 19:1.0 21:1.0 27:1.0 33:1.0 34:1.0 36:1.0 48:1.0 50:1.0 53:1.0 57:1.0 67:1.0 76:1.0 78:1.0 81:1.0 84:1.0 86:1.0 93:1.0 103:1.0 108:1.0
-1.0 2:1.0 8:1.0 19:1.0 21:1.0 23:1.0 33:1.0 34:1.0 36:1.0 40:1.0 50:1.0 53:1.0 57:1.0 67:1.0 76:1.0 78:1.0 81:1.0 84:1.0 86:1.0 93:1.0 103:1.0 107:1.0
-1.0 6:1.0 10:1.0 15:1.0 22:1.0 28:1.0 33:1.0 34:1.0 37:1.0 42:1.0 50:1.0 53:1.0 57:1.0 67:1.0 76:1.0 78:1.0 81:1.0 84:1.0 86:1.0 93:1.0 104:1.0 111:1.0
-0.05043408945622792 3:1.0 8:1.0 20:1.0 21:1.0 27:1.0 33:1.0 35:1.0 37:1.0 44:1.0 51:1.0 53:1.0 57:1.0 67:1.0 76:1.0 78:1.0 81:1.0 84:1.0 86:1.0 95:1.0 104:1.0 106:1.0
-1.0 6:1.0 8:1.0 19:1.0 21:1.0 23:1.0 33:1.0 35:1.0 37:1.0 45:1.0 51:1.0 53:1.0 57:1.0 67:1.0 76:1.0 78:1.0 81:1.0 84:1.0 86:1.0 95:1.0 104:1.0 106:1.0
-1.0 3:1.0 8:1.0 19:1.0 21:1.0 27:1.0 33:1.0 35:1.0 37:1.0 45:1.0 51:1.0 53:1.0 57:1.0 67:1.0 76:1.0 78:1.0 81:1.0 84:1.0 86:1.0 97:1.0 104:1.0 106:1.0
-1.0 3:1.0 8:1.0 19:1.0 21:1.0 23:1.0 33:1.0 35:1.0 37:1.0 48:1.0 51:1.0 53:1.0 57:1.0 67:1.0 76:1.0 78:1.0 81:1.0 84:1.0 86:1.0 95:1.0 104:1.0 106:1.0
-1.0 6:1.0 7:1.0 20:1.0 21:1.0 23:1.0 33:1.0 34:1.0 36:1.0 48:1.0 50:1.0 53:1.0 56:1.0 67:1.0 76:1.0 78:1.0 81:1.0 84:1.0 86:1.0 93:1.0 103:1.0 107:1.0
-1.0 3:1.0 7:1.0 15:1.0 21:1.0 23:1.0 33:1.0 34:1.0 36:1.0 45:1.0 50:1.0 53:1.0 56:1.0 67:1.0 76:1.0 78:1.0 81:1.0 84:1.0 86:1.0 95:1.0 103:1.0 107:1.0
-1.0 6:1.0 10:1.0 19:1.0 21:1.0 23:1.0 33:1.0 35:1.0 37:1.0 44:1.0 51:1.0 53:1.0 57:1.0 67:1.0 76:1.0 78:1.0 81:1.0 84:1.0 86:1.0 95:1.0 104:1.0 106:1.0
-1.0 3:1.0 10:1.0 14:1.0 22:1.0 28:1.0 33:1.0 34:1.0 37:1.0 45:1.0 50:1.0 53:1.0 57:1.0 67:1.0 76:1.0 78:1.0 81:1.0 84:1.0 86:1.0 95:1.0 104:1.0 111:1.0
-1.0 5:1.0 10:1.0 14:1.0 22:1.0 28:1.0 33:1.0 34:1.0 37:1.0 44:1.0 50:1.0 53:1.0 57:1.0 67:1.0 76:1.0 78:1.0 81:1.0 84:1.0 86:1.0 95:1.0 104:1.0 111:1.0
-1.0 6:1.0 10:1.0 15:1.0 22:1.0 28:1.0 33:1.0 34:1.0 37:1.0 42:1.0 50:1.0 53:1.0 57:1.0 67:1.0 76:1.0 78:1.0 81:1.0 84:1.0 86:1.0 95:1.0 104:1.0 111:1.0
-1.0 3:1.0 8:1.0 19:1.0 21:1.0 23:1.0 33:1.0 35:1.0 37:1.0 45:1.0 51:1.0 53:1.0 57:1.0 67:1.0 76:1.0 78:1.0 81:1.0 84:1.0 86:1.0 97:1.0 104:1.0 106:1.0
-1.0 3:1.0 10:1.0 14:1.0 22:1.0 28:1.0 33:1.0 34:1.0 37:1.0 40:1.0 50:1.0 53:1.0 57:1.0 67:1.0 76:1.0 78:1.0 81:1.0 84:1.0 86:1.0 95:1.0 104:1.0 111:1.0
-1.0 3:1.0 8:1.0 19:1.0 21:1.0 27:1.0 33:1.0 35:1.0 37:1.0 45:1.0 51:1.0 53:1.0 57:1.0 67:1.0 76:1.0 78:1.0 81:1.0 84:1.0 86:1.0 95:1.0 104:1.0 106:1.0
-0.4371364416096126 6:1.0 10:1.0 19:1.0 21:1.0 27:1.0 33:1.0 35:1.0 37:1.0 48:1.0 51:1.0 53:1.0 57:1.0 67:1.0 76:1.0 78:1.0 81:1.0 84:1.0 86:1.0 97:1.0 104:1.0 106:1.0
-0.8007976059100418 6:1.0 8:1.0 20:1.0 21:1.0 23:1.0 33:1.0 35:1.0 37:1.0 48:1.0 51:1.0 53:1.0 57:1.0 67:1.0 76:1.0 78:1.0 81:1.0 84:1.0 86:1.0 97:1.0 104:1.0 106:1.0
-1.0 6:1.0 8:1.0 20:1.0 21:1.0 23:1.0 33:1.0 35:1.0 37:1.0 44:1.0 51:1.0 53:1.0 57:1.0 67:1.0 76:1.0 78:1.0 81:1.0 84:1.0 86:1.0 97:1.0 104:1.0 106:1.0
-0.6818551398411001 2:1.0 8:1.0 19:1.0 21:1.0 23:1.0 33:1.0 34:1.0 36:1.0 48:1.0 50:1.0 53:1.0 57:1.0 67:1.0 76:1.0 78:1.0 81:1.0 84:1.0 86:1.0 95:1.0 103:1.0 108:1.0
-1.0 6:1.0 10:1.0 15:1.0 22:1.0 28:1.0 33:1.0 34:1.0 37:1.0 45:1.0 50:1.0 53:1.0 57:1.0 67:1.0 76:1.0 78:1.0 81:1.0 84:1.0 86:1.0 95:1.0 104:1.0 111:1.0
-1.0 3:1.0 7:1.0 20:1.0 21:1.0 23:1.0 33:1.0 34:1.0 36:1.0 48:1.0 50:1.0 53:1.0 56:1.0 67:1.0 76:1.0 78:1.0 81:1.0 84:1.0 86:1.0 93:1.0 103:1.0 107:1.0
-1.0 5:1.0 10:1.0 14:1.0 22:1.0 28:1.0 33:1.0 34:1.0 37:1.0 40:1.0 50:1.0 53:1.0 57:1.0 67:1.0 76:1.0 78:1.0 81:1.0 84:1.0 86:1.0 93:1.0 104:1.0 111:1.0
-1.0 5:1.0 10:1.0 14:1.0 22:1.0 28:1.0 33:1.0 34:1.0 37:1.0 44:1.0 50:1.0 53:1.0 57:1.0 67:1.0 76:1.0 78:1.0 81:1.0 84:1.0 86:1.0 93:1.0 104:1.0 111:1.0
-1.0 2:1.0 7:1.0 19:1.0 21:1.0 27:1.0 33:1.0 34:1.0 36:1.0 40:1.0 50:1.0 53:1.0 57:1.0 67:1.0 76:1.0 78:1.0 81:1.0 84:1.0 86:1.0 93:1.0 103:1.0 108:1.0
-0.11097543111771158 2:1.0 7:1.0 19:1.0 21:1.0 27:1.0 33:1.0 34:1.0 36:1.0 48:1.0 50:1.0 53:1.0 57:1.0 67:1.0 76:1.0 78:1.0 81:1.0 84:1.0 86:1.0 93:1.0 103:1.0 108:1.0
-1.0 3:1.0 10:1.0 14:1.0 22:1.0 28:1.0 33:1.0 34:1.0 37:1.0 44:1.0 50:1.0 53:1.0 57:1.0 67:1.0 76:1.0 78:1.0 81:1.0 84:1.0 86:1.0 93:1.0 104:1.0 111:1.0
-1.0 2:1.0 8:1.0 19:1.0 21:1.0 27:1.0 33:1.0 34:1.0 36:1.0 40:1.0 50:1.0 53:1.0 57:1.0 67:1.0 76:1.0 78:1.0 81:1.0 84:1.0 86:1.0 93:1.0 103:1.0 107:1.0
-0.6468992167521409 3:1.0 7:1.0 20:1.0 21:1.0 27:1.0 33:1.0 34:1.0 36:1.0 45:1.0 50:1.0 53:1.0 56:1.0 67:1.0 76:1.0 78:1.0 81:1.0 84:1.0 86:1.0 93:1.0 103:1.0 107:1.0
-1.0 6:1.0 8:1.0 19:1.0 21:1.0 27:1.0 33:1.0 34:1.0 36:1.0 40:1.0 50:1.0 53:1.0 57:1.0 67:1.0 76:1.0 78:1.0 81:1.0 84:1.0 86:1.0 93:1.0 103:1.0 108:1.0
-1.0 6:1.0 7:1.0 15:1.0 21:1.0 23:1.0 33:1.0 34:1.0 36:1.0 45:1.0 50:1.0 53:1.0 56:1.0 67:1.0 76:1.0 78:1.0 81:1.0 84:1.0 86:1.0 95:1.0 103:1.0 107:1.0
-0.6203543790132738 3:1.0 7:1.0 20:1.0 21:1.0 23:1.0 33:1.0 34:1.0 36:1.0 45:1.0 50:1.0 53:1.0 56:1.0 67:1.0 76:1.0 78:1.0 81:1.0 84:1.0 86:1.0 93:1.0 103:1.0 107:1.0
-0.7928892773457347 6:1.0 8:1.0 20:1.0 21:1.0 27:1.0 33:1.0 35:1.0 37:1.0 44:1.0 51:1.0 53:1.0 57:1.0 67:1.0 76:1.0 78:1.0 81:1.0 84:1.0 86:1.0 97:1.0 104:1.0 106:1.0
-1.0 2:1.0 7:1.0 19:1.0 21:1.0 23:1.0 33:1.0 34:1.0 36:1.0 40:1.0 50:1.0 53:1.0 57:1.0 67:1.0 76:1.0 78:1.0 81:1.0 84:1.0 86:1.0 93:1.0 103:1.0 108:1.0
-0.9173356348995049 6:1.0 8:1.0 19:1.0 21:1.0 27:1.0 33:1.0 34:1.0 36:1.0 42:1.0 50:1.0 53:1.0 57:1.0 67:1.0 76:1.0 78:1.0 81:1.0 84:1.0 86:1.0 93:1.0 103:1.0 108:1.0
-0.24998417610178705 2:1.0 8:1.0 19:1.0 21:1.0 27:1.0 33:1.0 34:1.0 36:1.0 40:1.0 50:1.0 53:1.0 57:1.0 67:1.0 76:1.0 78:1.0 81:1.0 84:1.0 86:1.0 95:1.0 103:1.0 107:1.0
-1.0 3:1.0 7:1.0 15:1.0 21:1.0 23:1.0 33:1.0 34:1.0 36:1.0 48:1.0 50:1.0 53:1.0 56:1.0 67:1.0 76:1.0 78:1.0 81:1.0 84:1.0 86:1.0 95:1.0 103:1.0 107:1.0
-1.0 3:1.0 10:1.0 15:1.0 22:1.0 28:1.0 33:1.0 34:1.0 37:1.0 45:1.0 50:1.0 53:1.0 57:1.0 67:1.0 76:1.0 78:1.0 81:1.0 84:1.0 86:1.0 95:1.0 104:1.0 111:1.0
-1.0 3:1.0 10:1.0 14:1.0 22:1.0 28:1.0 33:1.0 34:1.0 37:1.0 42:1.0 50:1.0 53:1.0 57:1.0 67:1.0 76:1.0 78:1.0 81:1.0 84:1.0 86:1.0 95:1.0 104:1.0 111:1.0
-1.0 2:1.0 8:1.0 19:1.0 21:1.0 23:1.0 33:1.0 34:1.0 36:1.0 40:1.0 50:1.0 53:1.0 57:1.0 67:1.0 76:1.0 78:1.0 81:1.0 84:1.0 86:1.0 93:1.0 103:1.0 108:1.0
-1.0 6:1.0 8:1.0 19:1.0 21:1.0 27:1.0 33:1.0 35:1.0 37:1.0 44:1.0 51:1.0 53:1.0 57:1.0 67:1.0 76:1.0 78:1.0 81:1.0 84:1.0 86:1.0 95:1.0 104:1.0 106:1.0
-1.0 3:1.0 10:1.0 14:1.0 22:1.0 28:1.0 33:1.0 34:1.0 37:1.0 42:1.0 50:1.0 53:1.0 57:1.0 67:1.0 76:1.0 78:1.0 81:1.0 84:1.0 86:1.0 93:1.0 104:1.0 111:1.0
-1.0 5:1.0 10:1.0 15:1.0 22:1.0 28:1.0 33:1.0 34:1.0 37:1.0 40:1.0 50:1.0 53:1.0 57:1.0 67:1.0 76:1.0 78:1.0 81:1.0 84:1.0 86:1.0 93:1.0 104:1.0 111:1.0
-1.0 3:1.0 7:1.0 15:1.0 21:1.0 23:1.0 33:1.0 34:1.0 36:1.0 44:1.0 50:1.0 53:1.0 56:1.0 67:1.0 76:1.0 78:1.0 81:1.0 84:1.0 86:1.0 95:1.0 103:1.0 107:1.0
-1.0 6:1.0 10:1.0 19:1.0 21:1.0 23:1.0 33:1.0 35:1.0 37:1.0 48:1.0 51:1.0 53:1.0 57:1.0 67:1.0 76:1.0 78:1.0 81:1.0 84:1.0 86:1.0 95:1.0 104:1.0 106:1.0
-1.0 6:1.0 8:1.0 19:1.0 21:1.0 27:1.0 33:1.0 34:1.0 36:1.0 40:1.0 50:1.0 53:1.0 57:1.0 67:1.0 76:1.0 78:1.0 81:1.0 84:1.0 86:1.0 93:1.0 103:1.0 107:1.0
-1.0 6:1.0 10:1.0 14:1.0 22:1.0 28:1.0 33:1.0 34:1.0 37:1.0 45:1.0 50:1.0 53:1.0 57:1.0 67:1.0 76:1.0 78:1.0 81:1.0 84:1.0 86:1.0 93:1.0 104:1.0 111:1.0
-1.0 6:1.0 10:1.0 15:1.0 22:1.0 28:1.0 33:1.0 34:1.0 37:1.0 45:1.0 50:1.0 53:1.0 57:1.0 67:1.0 76:1.0 78:1.0 81:1.0 84:1.0 86:1.0 93:1.0 104:1.0 111:1.0
-0.3537281721178386 6:1.0 7:1.0 15:1.0 21:1.0 23:1.0 33:1.0 34:1.0 36:1.0 45:1.0 50:1.0 53:1.0 56:1.0 67:1.0 76:1.0 78:1.0 81:1.0 84:1.0 86:1.0 93:1.0 103:1.0 107:1.0
-0.6290544478927966 2:1.0 7:1.0 19:1.0 21:1.0 23:1.0 33:1.0 34:1.0 36:1.0 48:1.0 50:1.0 53:1.0 57:1.0 67:1.0 76:1.0 78:1.0 81:1.0 84:1.0 86:1.0 93:1.0 103:1.0 108:1.0
-1.0 3:1.0 8:1.0 19:1.0 21:1.0 23:1.0 33:1.0 35:1.0 37:1.0 44:1.0 51:1.0 53:1.0 57:1.0 67:1.0 76:1.0 78:1.0 81:1.0 84:1.0 86:1.0 97:1.0 104:1.0 106:1.0
-1.0 6:1.0 10:1.0 15:1.0 22:1.0 28:1.0 33:1.0 34:1.0 37:1.0 40:1.0 50:1.0 53:1.0 57:1.0 67:1.0 76:1.0 78:1.0 81:1.0 84:1.0 86:1.0 95:1.0 104:1.0 111:1.0
-1.0 6:1.0 8:1.0 19:1.0 21:1.0 27:1.0 33:1.0 35:1.0 37:1.0 45:1.0 51:1.0 53:1.0 57:1.0 67:1.0 76:1.0 78:1.0 81:1.0 84:1.0 86:1.0 95:1.0 104:1.0 106:1.0
-1.0 6:1.0 8:1.0 20:1.0 21:1.0 23:1.0 33:1.0 35:1.0 37:1.0 45:1.0 51:1.0 53:1.0 57:1.0 67:1.0 76:1.0 78:1.0 81:1.0 84:1.0 86:1.0 95:1.0 104:1.0 106:1.0
-1.0 6:1.0 8:1.0 19:1.0 21:1.0 27:1.0 33:1.0 34:1.0 36:1.0 44:1.0 50:1.0 53:1.0 57:1.0 67:1.0 76:1.0 78:1.0 81:1.0 84:1.0 86:1.0 93:1.0 103:1.0 108:1.0
-1.0 6:1.0 10:1.0 15:1.0 22:1.0 28:1.0 33:1.0 34:1.0 37:1.0 44:1.0 50:1.0 53:1.0 57:1.0 67:1.0 76:1.0 78:1.0 81:1.0 84:1.0 86:1.0 93:1.0 104:1.0 111:1.0
-1.0 3:1.0 7:1.0 20:1.0 21:1.0 27:1.0 33:1.0 34:1.0 36:1.0 48:1.0 50:1.0 53:1.0 56:1.0 67:1.0 76:1.0 78:1.0 81:1.0 84:1.0 86:1.0 93:1.0 103:1.0 107:1.0
-1.0 6:1.0 8:1.0 20:1.0 21:1.0 27:1.0 33:1.0 35:1.0 37:1.0 45:1.0 51:1.0 53:1.0 57:1.0 67:1.0 76:1.0 78:1.0 81:1.0 84:1.0 86:1.0 95:1.0 104:1.0 106:1.0
-0.5205970308202056 6:1.0 8:1.0 19:1.0 21:1.0 23:1.0 33:1.0 34:1.0 36:1.0 44:1.0 50:1.0 53:1.0 57:1.0 67:1.0 76:1.0 78:1.0 81:1.0 84:1.0 86:1.0 93:1.0 103:1.0 108:1.0
-1.0 6:1.0 8:1.0 19:1.0 21:1.0 23:1.0 33:1.0 35:1.0 37:1.0 48:1.0 51:1.0 53:1.0 57:1.0 67:1.0 76:1.0 78:1.0 81:1.0 84:1.0 86:1.0 95:1.0 104:1.0 106:1.0
-1.0 6:1.0 10:1.0 14:1.0 22:1.0 28:1.0 33:1.0 34:1.0 37:1.0 42:1.0 50:1.0 53:1.0 57:1.0 67:1.0 76:1.0 78:1.0 81:1.0 84:1.0 86:1.0 93:1.0 104:1.0 111:1.0
-0.36487003995353473 6:1.0 8:1.0 19:1.0 21:1.0 27:1.0 33:1.0 34:1.0 36:1.0 40:1.0 50:1.0 53:1.0 57:1.0 67:1.0 76:1.0 78:1.0 81:1.0 84:1.0 86:1.0 95:1.0 103:1.0 107:1.0
-1.0 6:1.0 8:1.0 19:1.0 21:1.0 27:1.0 33:1.0 34:1.0 36:1.0 40:1.0 50:1.0 53:1.0 57:1.0 67:1.0 76:1.0 78:1.0 81:1.0 84:1.0 86:1.0 95:1.0 103:1.0 108:1.0
-1.0 5:1.0 10:1.0 14:1.0 22:1.0 28:1.0 33:1.0 34:1.0 37:1.0 45:1.0 50:1.0 53:1.0 57:1.0 67:1.0 76:1.0 78:1.0 81:1.0 84:1.0 86:1.0 93:1.0 104:1.0 111:1.0
-1.0 6:1.0 8:1.0 19:1.0 21:1.0 27:1.0 33:1.0 35:1.0 37:1.0 48:1.0 51:1.0 53:1.0 57:1.0 67:1.0 76:1.0 78:1.0 81:1.0 84:1.0 86:1.0 97:1.0 104:1.0 106:1.0
-1.0 3:1.0 7:1.0 15:1.0 21:1.0 23:1.0 33:1.0 34:1.0 36:1.0 45:1.0 50:1.0 53:1.0 56:1.0 67:1.0 76:1.0 78:1.0 81:1.0 84:1.0 86:1.0 93:1.0 103:1.0 107:1.0
-0.9447123023792252 5:1.0 10:1.0 15:1.0 22:1.0 28:1.0 33:1.0 34:1.0 37:1.0 44:1.0 50:1.0 53:1.0 57:1.0 67:1.0 76:1.0 78:1.0 81:1.0 84:1.0 86:1.0 93:1.0 104:1.0 111:1.0
-1.0 3:1.0 10:1.0 15:1.0 22:1.0 28:1.0 33:1.0 34:1.0 37:1.0 44:1.0 50:1.0 53:1.0 57:1.0 67:1.0 76:1.0 78:1.0 81:1.0 84:1.0 86:1.0 95:1.0 104:1.0 111:1.0
-1.0 6:1.0 8:1.0 19:1.0 21:1.0 23:1.0 33:1.0 35:1.0 37:1.0 45:1.0 51:1.0 53:1.0 57:1.0 67:1.0 76:1.0 78:1.0 81:1.0 84:1.0 86:1.0 97:1.0 104:1.0 106:1.0
-1.0 6:1.0 7:1.0 15:1.0 21:1.0 27:1.0 33:1.0 34:1.0 36:1.0 45:1.0 50:1.0 53:1.0 56:1.0 67:1.0 76:1.0 78:1.0 81:1.0 84:1.0 86:1.0 95:1.0 103:1.0 107:1.0
-0.9200459297886283 6:1.0 8:1.0 20:1.0 21:1.0 27:1.0 33:1.0 35:1.0 37:1.0 48:1.0 51:1.0 53:1.0 57:1.0 67:1.0 76:1.0 78:1.0 81:1.0 84:1.0 86:1.0 97:1.0 104:1.0 106:1.0
-0.36324747011657454 2:1.0 8:1.0 19:1.0 21:1.0 27:1.0 33:1.0 34:1.0 36:1.0 42:1.0 50:1.0 53:1.0 57:1.0 67:1.0 76:1.0 78:1.0 81:1.0 84:1.0 86:1.0 93:1.0 103:1.0 108:1.0
-1.0 3:1.0 10:1.0 15:1.0 22:1.0 28:1.0 33:1.0 34:1.0 37:1.0 44:1.0 50:1.0 53:1.0 57:1.0 67:1.0 76:1.0 78:1.0 81:1.0 84:1.0 86:1.0 93:1.0 104:1.0 111:1.0
-1.0 3:1.0 8:1.0 19:1.0 21:1.0 23:1.0 33:1.0 35:1.0 37:1.0 48:1.0 51:1.0 53:1.0 57:1.0 67:1.0 76:1.0 78:1.0 81:1.0 84:1.0 86:1.0 97:1.0 104:1.0 106:1.0
-1.0 3:1.0 7:1.0 15:1.0 21:1.0 27:1.0 33:1.0 34:1.0 36:1.0 44:1.0 50:1.0 53:1.0 56:1.0 67:1.0 76:1.0 78:1.0 81:1.0 84:1.0 86:1.0 95:1.0 103:1.0 107:1.0
-1.0 6:1.0 10:1.0 15:1.0 22:1.0 28:1.0 33:1.0 34:1.0 37:1.0 44:1.0 50:1.0 53:1.0 57:1.0 67:1.0 76:1.0 78:1.0 81:1.0 84:1.0 86:1.0 95:1.0 104:1.0 111:1.0
-1.0 6:1.0 10:1.0 19:1.0 21:1.0 27:1.0 33:1.0 35:1.0 37:1.0 45:1.0 51:1.0 53:1.0 57:1.0 67:1.0 76:1.0 78:1.0 81:1.0 84:1.0 86:1.0 95:1.0 104:1.0 106:1.0
-1.0 6:1.0 8:1.0 20:1.0 21:1.0 27:1.0 33:1.0 35:1.0 37:1.0 44:1.0 51:1.0 53:1.0 57:1.0 67:1.0 76:1.0 78:1.0 81:1.0 84:1.0 86:1.0 95:1.0 104:1.0 106:1.0
-0.594003592277667 6:1.0 7:1.0 15:1.0 21:1.0 27:1.0 33:1.0 34:1.0 36:1.0 44:1.0 50:1.0 53:1.0 56:1.0 67:1.0 76:1.0 78:1.0 81:1.0 84:1.0 86:1.0 95:1.0 103:1.0 107:1.0
-1.0 6:1.0 7:1.0 15:1.0 21:1.0 23:1.0 33:1.0 34:1.0 36:1.0 48:1.0 50:1.0 53:1.0 56:1.0 67:1.0 76:1.0 78:1.0 81:1.0 84:1.0 86:1.0 95:1.0 103:1.0 107:1.0
-1.0 3:1.0 7:1.0 15:1.0 21:1.0 27:1.0 33:1.0 34:1.0 36:1.0 45:1.0 50:1.0 53:1.0 56:1.0 67:1.0 76:1.0 78:1.0 81:1.0 84:1.0 86:1.0 93:1.0 103:1.0 107:1.0
-0.5609189055273043 2:1.0 7:1.0 19:1.0 21:1.0 23:1.0 33:1.0 34:1.0 36:1.0 42:1.0 50:1.0 53:1.0 57:1.0 67:1.0 76:1.0 78:1.0 81:1.0 84:1.0 86:1.0 95:1.0 103:1.0 108:1.0
-1.0 6:1.0 10:1.0 15:1.0 22:1.0 28:1.0 33:1.0 34:1.0 37:1.0 40:1.0 50:1.0 53:1.0 57:1.0 67:1.0 76:1.0 78:1.0 81:1.0 84:1.0 86:1.0 93:1.0 104:1.0 111:1.0
-1.0 6:1.0 10:1.0 14:1.0 22:1.0 28:1.0 33:1.0 34:1.0 37:1.0 40:1.0 50:1.0 53:1.0 57:1.0 67:1.0 76:1.0 78:1.0 81:1.0 84:1.0 86:1.0 93:1.0 104:1.0 111:1.0
-0.1500473397091803 6:1.0 10:1.0 14:1.0 22:1.0 28:1.0 33:1.0 34:1.0 37:1.0 45:1.0 50:1.0 53:1.0 57:1.0 67:1.0 76:1.0 78:1.0 81:1.0 84:1.0 86:1.0 93:1.0 105:1.0 111:1.0
-1.0 3:1.0 10:1.0 15:1.0 22:1.0 28:1.0 33:1.0 34:1.0 37:1.0 40:1.0 50:1.0 53:1.0 57:1.0 67:1.0 76:1.0 78:1.0 81:1.0 84:1.0 86:1.0 95:1.0 104:1.0 111:1.0
-1.0 6:1.0 8:1.0 19:1.0 21:1.0 23:1.0 33:1.0 35:1.0 37:1.0 44:1.0 51:1.0 53:1.0 57:1.0 67:1.0 76:1.0 78:1.0 81:1.0 84:1.0 86:1.0 97:1.0 104:1.0 106:1.0
-1.0 6:1.0 8:1.0 20:1.0 21:1.0 23:1.0 33:1.0 35:1.0 37:1.0 45:1.0 51:1.0 53:1.0 57:1.0 67:1.0 76:1.0 78:1.0 81:1.0 84:1.0 86:1.0 97:1.0 104:1.0 106:1.0
-0.3257482612085499 6:1.0 10:1.0 19:1.0 21:1.0 23:1.0 33:1.0 35:1.0 37:1.0 45:1.0 51:1.0 53:1.0 57:1.0 67:1.0 76:1.0 78:1.0 81:1.0 84:1.0 86:1.0 97:1.0 104:1.0 106:1.0
-1.0 6:1.0 7:1.0 15:1.0 21:1.0 27:1.0 33:1.0 34:1.0 36:1.0 48:1.0 50:1.0 53:1.0 56:1.0 67:1.0 76:1.0 78:1.0 81:1.0 84:1.0 86:1.0 95:1.0 103:1.0 107:1.0
-1.0 6:1.0 10:1.0 14:1.0 22:1.0 28:1.0 33:1.0 34:1.0 37:1.0 44:1.0 50:1.0 53:1.0 57:1.0 67:1.0 76:1.0 78:1.0 81:1.0 84:1.0 86:1.0 95:1.0 104:1.0 111:1.0
-0.4036908270179061 6:1.0 7:1.0 14:1.0 21:1.0 28:1.0 33:1.0 34:1.0 36:1.0 47:1.0 51:1.0 53:1.0 57:1.0 63:1.0 72:1.0 78:1.0 81:1.0 84:1.0 86:1.0 93:1.0 104:1.0 106:1.0
-1.0 3:1.0 8:1.0 19:1.0 21:1.0 27:1.0 33:1.0 35:1.0 37:1.0 44:1.0 51:1.0 53:1.0 57:1.0 67:1.0 76:1.0 78:1.0 81:1.0 84:1.0 86:1.0 97:1.0 104:1.0 106:1.0
-0.39412348204800557 3:1.0 8:1.0 20:1.0 21:1.0 23:1.0 33:1.0 35:1.0 37:1.0 44:1.0 51:1.0 53:1.0 57:1.0 67:1.0 76:1.0 78:1.0 81:1.0 84:1.0 86:1.0 95:1.0 104:1.0 106:1.0
-0.49249075417914373 6:1.0 7:1.0 14:1.0 21:1.0 28:1.0 33:1.0 34:1.0 36:1.0 47:1.0 51:1.0 53:1.0 57:1.0 66:1.0 72:1.0 78:1.0 81:1.0 84:1.0 86:1.0 93:1.0 104:1.0 106:1.0
-1.0 2:1.0 8:1.0 19:1.0 21:1.0 23:1.0 33:1.0 34:1.0 36:1.0 40:1.0 50:1.0 53:1.0 57:1.0 67:1.0 76:1.0 78:1.0 81:1.0 84:1.0 86:1.0 95:1.0 103:1.0 108:1.0
-0.13027674055790417 6:1.0 7:1.0 14:1.0 21:1.0 28:1.0 33:1.0 34:1.0 36:1.0 47:1.0 51:1.0 53:1.0 57:1.0 63:1.0 75:1.0 78:1.0 81:1.0 84:1.0 86:1.0 93:1.0 104:1.0 106:1.0
-0.28721017997273657 6:1.0 7:1.0 14:1.0 21:1.0 28:1.0 33:1.0 34:1.0 36:1.0 47:1.0 51:1.0 53:1.0 57:1.0 67:1.0 75:1.0 78:1.0 81:1.0 84:1.0 86:1.0 93:1.0 104:1.0 106:1.0
-0.12808505345564528 3:1.0 7:1.0 13:1.0 21:1.0 28:1.0 33:1.0 34:1.0 36:1.0 48:1.0 51:1.0 53:1.0 57:1.0 66:1.0 75:1.0 78:1.0 81:1.0 84:1.0 86:1.0 93:1.0 104:1.0 106:1.0
-0.640491015230966 6:1.0 7:1.0 14:1.0 21:1.0 28:1.0 33:1.0 34:1.0 36:1.0 47:1.0 51:1.0 53:1.0 57:1.0 66:1.0 75:1.0 78:1.0 81:1.0 84:1.0 86:1.0 93:1.0 104:1.0 106:1.0
-0.9186097955823017 3:1.0 7:1.0 13:1.0 21:1.0 28:1.0 33:1.0 34:1.0 36:1.0 47:1.0 51:1.0 53:1.0 57:1.0 66:1.0 75:1.0 78:1.0 81:1.0 84:1.0 86:1.0 93:1.0 104:1.0 106:1.0
-0.3319904527984268 3:1.0 7:1.0 13:1.0 21:1.0 28:1.0 33:1.0 34:1.0 36:1.0 47:1.0 51:1.0 53:1.0 57:1.0 66:1.0 72:1.0 78:1.0 81:1.0 84:1.0 86:1.0 93:1.0 104:1.0 106:1.0
-0.10892388118045739 3:1.0 7:1.0 13:1.0 21:1.0 28:1.0 33:1.0 34:1.0 36:1.0 47:1.0 51:1.0 53:1.0 57:1.0 63:1.0 75:1.0 78:1.0 81:1.0 84:1.0 86:1.0 93:1.0 104:1.0 106:1.0
-0.5770548126906303 3:1.0 7:1.0 14:1.0 21:1.0 28:1.0 33:1.0 34:1.0 36:1.0 47:1.0 51:1.0 53:1.0 57:1.0 66:1.0 72:1.0 78:1.0 81:1.0 84:1.0 86:1.0 93:1.0 104:1.0 106:1.0
-0.170635671648594 3:1.0 7:1.0 14:1.0 21:1.0 28:1.0 33:1.0 34:1.0 36:1.0 47:1.0 51:1.0 53:1.0 57:1.0 63:1.0 75:1.0 78:1.0 81:1.0 84:1.0 86:1.0 93:1.0 104:1.0 106:1.0
-0.29245550154598304 3:1.0 7:1.0 13:1.0 21:1.0 28:1.0 33:1.0 34:1.0 36:1.0 47:1.0 51:1.0 53:1.0 57:1.0 67:1.0 75:1.0 78:1.0 81:1.0 84:1.0 86:1.0 93:1.0 104:1.0 106:1.0
-0.0822569326271991 3:1.0 7:1.0 14:1.0 21:1.0 28:1.0 33:1.0 34:1.0 36:1.0 47:1.0 51:1.0 53:1.0 57:1.0 67:1.0 72:1.0 78:1.0 81:1.0 84:1.0 86:1.0 93:1.0 104:1.0 106:1.0
-0.7579071818620455 3:1.0 7:1.0 14:1.0 21:1.0 28:1.0 33:1.0 34:1.0 36:1.0 47:1.0 51:1.0 53:1.0 57:1.0 66:1.0 75:1.0 78:1.0 81:1.0 84:1.0 86:1.0 93:1.0 104:1.0 106:1.0
-0.026153486709740926 3:1.0 7:1.0 14:1.0 21:1.0 28:1.0 33:1.0 34:1.0 36:1.0 47:1.0 51:1.0 53:1.0 57:1.0 63:1.0 72:1.0 78:1.0 81:1.0 84:1.0 86:1.0 93:1.0 104:1.0 106:1.0
-0.6457130348279163 3:1.0 7:1.0 13:1.0 21:1.0 28:1.0 33:1.0 34:1.0 36:1.0 47:1.0 51:1.0 53:1.0 57:1.0 67:1.0 72:1.0 78:1.0 81:1.0 84:1.0 86:1.0 93:1.0 104:1.0 106:1.0
-0.45503998334852575 3:1.0 7:1.0 13:1.0 21:1.0 28:1.0 33:1.0 34:1.0 36:1.0 47:1.0 51:1.0 53:1.0 57:1.0 63:1.0 72:1.0 78:1.0 81:1.0 84:1.0 86:1.0 93:1.0 104:1.0 106:1.0
-1.0 4:1.0 7:1.0 15:1.0 22:1.0 28:1.0 33:1.0 35:1.0 37:1.0 48:1.0 50:1.0 55:1.0 59:1.0 67:1.0 74:1.0 78:1.0 81:1.0 84:1.0 88:1.0 98:1.0 104:1.0 109:1.0
-1.0 3:1.0 8:1.0 16:1.0 21:1.0 28:1.0 33:1.0 34:1.0 36:1.0 39:1.0 50:1.0 53:1.0 57:1.0 67:1.0 76:1.0 78:1.0 81:1.0 83:1.0 88:1.0 98:1.0 101:1.0 112:1.0
-1.0 6:1.0 7:1.0 17:1.0 22:1.0 28:1.0 33:1.0 34:1.0 37:1.0 45:1.0 50:1.0 53:1.0 59:1.0 67:1.0 76:1.0 78:1.0 81:1.0 84:1.0 90:1.0 92:1.0 104:1.0 106:1.0
-1.0 6:1.0 7:1.0 18:1.0 22:1.0 28:1.0 33:1.0 34:1.0 37:1.0 41:1.0 50:1.0 53:1.0 59:1.0 67:1.0 76:1.0 78:1.0 81:1.0 84:1.0 90:1.0 92:1.0 104:1.0 106:1.0
-1.0 6:1.0 7:1.0 18:1.0 22:1.0 28:1.0 33:1.0 34:1.0 37:1.0 47:1.0 50:1.0 53:1.0 59:1.0 67:1.0 76:1.0 78:1.0 81:1.0 84:1.0 90:1.0 92:1.0 104:1.0 106:1.0
-1.0 3:1.0 7:1.0 12:1.0 21:1.0 28:1.0 33:1.0 34:1.0 36:1.0 48:1.0 50:1.0 53:1.0 57:1.0 67:1.0 76:1.0 78:1.0 81:1.0 83:1.0 88:1.0 98:1.0 101:1.0 112:1.0
-1.0 3:1.0 7:1.0 18:1.0 22:1.0 28:1.0 33:1.0 34:1.0 37:1.0 41:1.0 50:1.0 53:1.0 59:1.0 67:1.0 76:1.0 78:1.0 81:1.0 84:1.0 90:1.0 92:1.0 104:1.0 106:1.0
-0.8094547594769845 3:1.0 8:1.0 16:1.0 21:1.0 28:1.0 33:1.0 34:1.0 36:1.0 48:1.0 50:1.0 53:1.0 57:1.0 67:1.0 71:1.0 78:1.0 81:1.0 83:1.0 88:1.0 98:1.0 101:1.0 112:1.0
-1.0 3:1.0 7:1.0 18:1.0 22:1.0 28:1.0 33:1.0 34:1.0 37:1.0 47:1.0 50:1.0 53:1.0 59:1.0 67:1.0 76:1.0 78:1.0 81:1.0 84:1.0 90:1.0 92:1.0 104:1.0 106:1.0
-1.0 4:1.0 7:1.0 15:1.0 22:1.0 28:1.0 33:1.0 35:1.0 37:1.0 48:1.0 50:1.0 55:1.0 57:1.0 67:1.0 74:1.0 78:1.0 81:1.0 84:1.0 88:1.0 98:1.0 104:1.0 109:1.0
-0.636942849307738 3:1.0 8:1.0 12:1.0 21:1.0 28:1.0 33:1.0 34:1.0 36:1.0 48:1.0 50:1.0 53:1.0 57:1.0 62:1.0 76:1.0 78:1.0 81:1.0 83:1.0 88:1.0 98:1.0 101:1.0 112:1.0
-1.0 3:1.0 7:1.0 19:1.0 22:1.0 28:1.0 33:1.0 34:1.0 37:1.0 41:1.0 50:1.0 53:1.0 59:1.0 67:1.0 76:1.0 78:1.0 81:1.0 84:1.0 90:1.0 92:1.0 104:1.0 106:1.0
-1.0 3:1.0 8:1.0 12:1.0 21:1.0 28:1.0 33:1.0 34:1.0 36:1.0 48:1.0 50:1.0 53:1.0 57:1.0 67:1.0 76:1.0 78:1.0 81:1.0 83:1.0 88:1.0 98:1.0 101:1.0 112:1.0
-1.0 3:1.0 8:1.0 12:1.0 21:1.0 28:1.0 33:1.0 34:1.0 36:1.0 48:1.0 50:1.0 53:1.0 57:1.0 67:1.0 71:1.0 78:1.0 81:1.0 83:1.0 88:1.0 98:1.0 101:1.0 112:1.0
-1.0 3:1.0 8:1.0 12:1.0 21:1.0 28:1.0 33:1.0 34:1.0 36:1.0 39:1.0 50:1.0 53:1.0 57:1.0 67:1.0 76:1.0 78:1.0 81:1.0 83:1.0 88:1.0 98:1.0 101:1.0 112:1.0
-1.0 3:1.0 7:1.0 18:1.0 22:1.0 28:1.0 33:1.0 34:1.0 37:1.0 45:1.0 50:1.0 53:1.0 59:1.0 67:1.0 76:1.0 78:1.0 81:1.0 84:1.0 90:1.0 92:1.0 104:1.0 106:1.0
-1.0 3:1.0 7:1.0 12:1.0 21:1.0 28:1.0 33:1.0 34:1.0 36:1.0 48:1.0 50:1.0 53:1.0 57:1.0 62:1.0 76:1.0 78:1.0 81:1.0 83:1.0 88:1.0 98:1.0 101:1.0 112:1.0
-1.0 6:1.0 7:1.0 19:1.0 22:1.0 28:1.0 33:1.0 34:1.0 37:1.0 47:1.0 50:1.0 53:1.0 59:1.0 67:1.0 76:1.0 78:1.0 81:1.0 84:1.0 90:1.0 92:1.0 105:1.0 106:1.0
-0.08229666045398323 4:1.0 7:1.0 16:1.0 21:1.0 28:1.0 33:1.0 34:1.0 36:1.0 39:1.0 50:1.0 53:1.0 57:1.0 67:1.0 76:1.0 78:1.0 81:1.0 83:1.0 88:1.0 98:1.0 101:1.0 112:1.0
-1.0 3:1.0 7:1.0 11:1.0 22:1.0 28:1.0 33:1.0 35:1.0 37:1.0 48:1.0 50:1.0 55:1.0 57:1.0 67:1.0 74:1.0 78:1.0 81:1.0 84:1.0 88:1.0 98:1.0 104:1.0 109:1.0
-1.0 3:1.0 7:1.0 16:1.0 21:1.0 28:1.0 33:1.0 34:1.0 36:1.0 48:1.0 50:1.0 53:1.0 57:1.0 67:1.0 71:1.0 78:1.0 81:1.0 83:1.0 88:1.0 98:1.0 101:1.0 112:1.0
-1.0 4:1.0 7:1.0 11:1.0 22:1.0 28:1.0 33:1.0 35:1.0 37:1.0 48:1.0 50:1.0 55:1.0 57:1.0 67:1.0 74:1.0 78:1.0 81:1.0 84:1.0 88:1.0 98:1.0 104:1.0 109:1.0
-1.0 6:1.0 7:1.0 19:1.0 22:1.0 28:1.0 33:1.0 34:1.0 37:1.0 41:1.0 50:1.0 53:1.0 59:1.0 67:1.0 76:1.0 78:1.0 81:1.0 84:1.0 90:1.0 92:1.0 104:1.0 106:1.0
-1.0 4:1.0 8:1.0 12:1.0 21:1.0 28:1.0 33:1.0 34:1.0 36:1.0 48:1.0 50:1.0 53:1.0 57:1.0 67:1.0 76:1.0 78:1.0 81:1.0 83:1.0 88:1.0 98:1.0 101:1.0 112:1.0
-0.23674912434649556 4:1.0 7:1.0 12:1.0 21:1.0 28:1.0 33:1.0 34:1.0 36:1.0 48:1.0 50:1.0 53:1.0 57:1.0 67:1.0 71:1.0 78:1.0 81:1.0 83:1.0 88:1.0 98:1.0 101:1.0 112:1.0
-1.0 4:1.0 10:1.0 15:1.0 22:1.0 28:1.0 33:1.0 35:1.0 37:1.0 48:1.0 50:1.0 53:1.0 57:1.0 67:1.0 74:1.0 78:1.0 81:1.0 84:1.0 88:1.0 98:1.0 104:1.0 109:1.0
-1.0 6:1.0 7:1.0 17:1.0 22:1.0 28:1.0 33:1.0 34:1.0 37:1.0 48:1.0 50:1.0 53:1.0 59:1.0 67:1.0 76:1.0 78:1.0 81:1.0 84:1.0 90:1.0 92:1.0 104:1.0 106:1.0
-0.3573056598827673 3:1.0 7:1.0 12:1.0 21:1.0 28:1.0 33:1.0 34:1.0 36:1.0 39:1.0 50:1.0 53:1.0 57:1.0 67:1.0 71:1.0 78:1.0 81:1.0 83:1.0 88:1.0 98:1.0 101:1.0 112:1.0
-1.0 3:1.0 7:1.0 19:1.0 22:1.0 28:1.0 33:1.0 34:1.0 37:1.0 45:1.0 50:1.0 53:1.0 59:1.0 67:1.0 76:1.0 78:1.0 81:1.0 84:1.0 90:1.0 92:1.0 104:1.0 106:1.0
-1.0 6:1.0 7:1.0 11:1.0 22:1.0 28:1.0 33:1.0 35:1.0 37:1.0 48:1.0 50:1.0 55:1.0 57:1.0 67:1.0 74:1.0 78:1.0 81:1.0 84:1.0 88:1.0 98:1.0 104:1.0 109:1.0
-1.0 6:1.0 10:1.0 15:1.0 22:1.0 28:1.0 33:1.0 35:1.0 37:1.0 48:1.0 50:1.0 55:1.0 57:1.0 67:1.0 74:1.0 78:1.0 81:1.0 84:1.0 88:1.0 98:1.0 104:1.0 109:1.0
-1.0 6:1.0 7:1.0 17:1.0 22:1.0 28:1.0 33:1.0 34:1.0 37:1.0 41:1.0 50:1.0 53:1.0 59:1.0 67:1.0 76:1.0 78:1.0 81:1.0 84:1.0 90:1.0 92:1.0 104:1.0 106:1.0
-1.0 6:1.0 7:1.0 15:1.0 22:1.0 28:1.0 33:1.0 35:1.0 37:1.0 48:1.0 50:1.0 55:1.0 59:1.0 67:1.0 74:1.0 78:1.0 81:1.0 84:1.0 88:1.0 98:1.0 104:1.0 109:1.0
-1.0 3:1.0 7:1.0 11:1.0 22:1.0 28:1.0 33:1.0 35:1.0 37:1.0 48:1.0 50:1.0 53:1.0 57:1.0 67:1.0 74:1.0 78:1.0 81:1.0 84:1.0 88:1.0 98:1.0 104:1.0 109:1.0
-0.10743773235686262 6:1.0 10:1.0 11:1.0 22:1.0 28:1.0 33:1.0 35:1.0 37:1.0 48:1.0 50:1.0 55:1.0 57:1.0 67:1.0 74:1.0 78:1.0 81:1.0 84:1.0 88:1.0 98:1.0 104:1.0 109:1.0
-1.0 3:1.0 7:1.0 17:1.0 22:1.0 28:1.0 33:1.0 34:1.0 37:1.0 48:1.0 50:1.0 53:1.0 59:1.0 67:1.0 76:1.0 78:1.0 81:1.0 84:1.0 90:1.0 92:1.0 104:1.0 106:1.0
-0.04229061984019227 4:1.0 8:1.0 16:1.0 21:1.0 28:1.0 33:1.0 34:1.0 36:1.0 48:1.0 50:1.0 53:1.0 57:1.0 67:1.0 76:1.0 78:1.0 81:1.0 83:1.0 88:1.0 98:1.0 101:1.0 112:1.0
-1.0 3:1.0 7:1.0 17:1.0 22:1.0 28:1.0 33:1.0 34:1.0 37:1.0 41:1.0 50:1.0 53:1.0 59:1.0 67:1.0 76:1.0 78:1.0 81:1.0 84:1.0 90:1.0 92:1.0 104:1.0 106:1.0
-1.0 4:1.0 7:1.0 11:1.0 22:1.0 28:1.0 33:1.0 35:1.0 37:1.0 48:1.0 50:1.0 53:1.0 57:1.0 67:1.0 74:1.0 78:1.0 81:1.0 84:1.0 88:1.0 98:1.0 104:1.0 109:1.0
-1.0 4:1.0 7:1.0 15:1.0 22:1.0 28:1.0 33:1.0 35:1.0 37:1.0 48:1.0 50:1.0 53:1.0 57:1.0 67:1.0 74:1.0 78:1.0 81:1.0 84:1.0 88:1.0 98:1.0 104:1.0 109:1.0
-1.0 3:1.0 7:1.0 17:1.0 22:1.0 28:1.0 33:1.0 34:1.0 37:1.0 45:1.0 50:1.0 53:1.0 59:1.0 67:1.0 76:1.0 78:1.0 81:1.0 84:1.0 90:1.0 92:1.0 104:1.0 106:1.0
-1.0 6:1.0 7:1.0 11:1.0 22:1.0 28:1.0 33:1.0 35:1.0 37:1.0 48:1.0 50:1.0 53:1.0 57:1.0 67:1.0 74:1.0 78:1.0 81:1.0 84:1.0 88:1.0 98:1.0 104:1.0 109:1.0
-1.0 3:1.0 7:1.0 15:1.0 22:1.0 28:1.0 33:1.0 35:1.0 37:1.0 48:1.0 50:1.0 55:1.0 57:1.0 67:1.0 74:1.0 78:1.0 81:1.0 84:1.0 88:1.0 98:1.0 104:1.0 109:1.0
-1.0 6:1.0 7:1.0 19:1.0 22:1.0 28:1.0 33:1.0 34:1.0 37:1.0 48:1.0 50:1.0 53:1.0 59:1.0 67:1.0 76:1.0 78:1.0 81:1.0 84:1.0 90:1.0 92:1.0 105:1.0 106:1.0
-1.0 3:1.0 7:1.0 15:1.0 22:1.0 28:1.0 33:1.0 35:1.0 37:1.0 48:1.0 50:1.0 53:1.0 57:1.0 67:1.0 74:1.0 78:1.0 81:1.0 84:1.0 88:1.0 98:1.0 104:1.0 109:1.0
-0.44718755283839173 4:1.0 7:1.0 15:1.0 22:1.0 28:1.0 33:1.0 35:1.0 37:1.0 48:1.0 50:1.0 53:1.0 59:1.0 67:1.0 74:1.0 78:1.0 81:1.0 84:1.0 88:1.0 98:1.0 104:1.0 109:1.0
-1.0 3:1.0 7:1.0 12:1.0 21:1.0 28:1.0 33:1.0 34:1.0 36:1.0 48:1.0 50:1.0 53:1.0 57:1.0 67:1.0 71:1.0 78:1.0 81:1.0 83:1.0 88:1.0 98:1.0 101:1.0 112:1.0
-1.0 6:1.0 7:1.0 15:1.0 22:1.0 28:1.0 33:1.0 35:1.0 37:1.0 48:1.0 50:1.0 53:1.0 57:1.0 67:1.0 74:1.0 78:1.0 81:1.0 84:1.0 88:1.0 98:1.0 104:1.0 109:1.0
-0.7354807478759794 3:1.0 7:1.0 16:1.0 21:1.0 28:1.0 33:1.0 34:1.0 36:1.0 48:1.0 50:1.0 53:1.0 57:1.0 62:1.0 76:1.0 78:1.0 81:1.0 83:1.0 88:1.0 98:1.0 101:1.0 112:1.0
-1.0 4:1.0 10:1.0 15:1.0 22:1.0 28:1.0 33:1.0 35:1.0 37:1.0 48:1.0 50:1.0 55:1.0 57:1.0 67:1.0 74:1.0 78:1.0 81:1.0 84:1.0 88:1.0 98:1.0 104:1.0 109:1.0
-1.0 3:1.0 7:1.0 16:1.0 21:1.0 28:1.0 33:1.0 34:1.0 36:1.0 48:1.0 50:1.0 53:1.0 57:1.0 67:1.0 76:1.0 78:1.0 81:1.0 83:1.0 88:1.0 98:1.0 101:1.0 112:1.0
-1.0 3:1.0 7:1.0 18:1.0 22:1.0 28:1.0 33:1.0 34:1.0 37:1.0 48:1.0 50:1.0 53:1.0 59:1.0 67:1.0 76:1.0 78:1.0 81:1.0 84:1.0 90:1.0 92:1.0 104:1.0 106:1.0
-1.0 4:1.0 7:1.0 16:1.0 21:1.0 28:1.0 33:1.0 34:1.0 36:1.0 48:1.0 50:1.0 53:1.0 57:1.0 67:1.0 76:1.0 78:1.0 81:1.0 83:1.0 88:1.0 98:1.0 101:1.0 112:1.0
-1.0 3:1.0 8:1.0 16:1.0 21:1.0 28:1.0 33:1.0 34:1.0 36:1.0 48:1.0 50:1.0 53:1.0 57:1.0 67:1.0 76:1.0 78:1.0 81:1.0 83:1.0 88:1.0 98:1.0 101:1.0 112:1.0
-1.0 3:1.0 7:1.0 19:1.0 22:1.0 28:1.0 33:1.0 34:1.0 37:1.0 47:1.0 50:1.0 53:1.0 59:1.0 67:1.0 76:1.0 78:1.0 81:1.0 84:1.0 90:1.0 92:1.0 104:1.0 106:1.0
-1.0 3:1.0 10:1.0 15:1.0 22:1.0 28:1.0 33:1.0 35:1.0 37:1.0 48:1.0 50:1.0 55:1.0 57:1.0 67:1.0 74:1.0 78:1.0 81:1.0 84:1.0 88:1.0 98:1.0 104:1.0 109:1.0
-1.0 6:1.0 7:1.0 17:1.0 22:1.0 28:1.0 33:1.0 34:1.0 37:1.0 47:1.0 50:1.0 53:1.0 59:1.0 67:1.0 76:1.0 78:1.0 81:1.0 84:1.0 90:1.0 92:1.0 104:1.0 106:1.0
-1.0 6:1.0 7:1.0 19:1.0 22:1.0 28:1.0 33:1.0 34:1.0 37:1.0 47:1.0 50:1.0 53:1.0 59:1.0 67:1.0 76:1.0 78:1.0 81:1.0 84:1.0 90:1.0 92:1.0 104:1.0 106:1.0
-1.0 4:1.0 7:1.0 12:1.0 21:1.0 28:1.0 33:1.0 34:1.0 36:1.0 48:1.0 50:1.0 53:1.0 57:1.0 67:1.0 76:1.0 78:1.0 81:1.0 83:1.0 88:1.0 98:1.0 101:1.0 112:1.0
-1.0 6:1.0 7:1.0 18:1.0 22:1.0 28:1.0 33:1.0 34:1.0 37:1.0 45:1.0 50:1.0 53:1.0 59:1.0 67:1.0 76:1.0 78:1.0 81:1.0 84:1.0 90:1.0 92:1.0 104:1.0 106:1.0
-1.0 6:1.0 7:1.0 19:1.0 22:1.0 28:1.0 33:1.0 34:1.0 37:1.0 48:1.0 50:1.0 53:1.0 59:1.0 67:1.0 76:1.0 78:1.0 81:1.0 84:1.0 90:1.0 92:1.0 104:1.0 106:1.0
-0.619074431032366 3:1.0 10:1.0 15:1.0 22:1.0 28:1.0 33:1.0 35:1.0 37:1.0 48:1.0 50:1.0 53:1.0 57:1.0 67:1.0 74:1.0 78:1.0 81:1.0 84:1.0 88:1.0 98:1.0 104:1.0 109:1.0
-1.0 3:1.0 7:1.0 19:1.0 22:1.0 28:1.0 33:1.0 34:1.0 37:1.0 48:1.0 50:1.0 53:1.0 59:1.0 67:1.0 76:1.0 78:1.0 81:1.0 84:1.0 90:1.0 92:1.0 104:1.0 106:1.0
-1.0 6:1.0 7:1.0 19:1.0 22:1.0 28:1.0 33:1.0 34:1.0 37:1.0 41:1.0 50:1.0 53:1.0 59:1.0 67:1.0 76:1.0 78:1.0 81:1.0 84:1.0 90:1.0 92:1.0 105:1.0 106:1.0
-1.0 6:1.0 7:1.0 18:1.0 22:1.0 28:1.0 33:1.0 34:1.0 37:1.0 48:1.0 50:1.0 53:1.0 59:1.0 67:1.0 76:1.0 78:1.0 81:1.0 84:1.0 90:1.0 92:1.0 104:1.0 106:1.0
-1.0 3:1.0 7:1.0 17:1.0 22:1.0 28:1.0 33:1.0 34:1.0 37:1.0 47:1.0 50:1.0 53:1.0 59:1.0 67:1.0 76:1.0 78:1.0 81:1.0 84:1.0 90:1.0 92:1.0 104:1.0 106:1.0
-1.0 6:1.0 7:1.0 19:1.0 22:1.0 28:1.0 33:1.0 34:1.0 37:1.0 45:1.0 50:1.0 53:1.0 59:1.0 67:1.0 76:1.0 78:1.0 81:1.0 84:1.0 90:1.0 92:1.0 104:1.0 106:1.0
-1.0 6:1.0 10:1.0 15:1.0 22:1.0 28:1.0 33:1.0 35:1.0 37:1.0 48:1.0 50:1.0 53:1.0 57:1.0 67:1.0 74:1.0 78:1.0 81:1.0 84:1.0 88:1.0 98:1.0 104:1.0 109:1.0
-1.0 3:1.0 7:1.0 12:1.0 21:1.0 28:1.0 33:1.0 34:1.0 36:1.0 39:1.0 50:1.0 53:1.0 57:1.0 67:1.0 76:1.0 78:1.0 81:1.0 83:1.0 88:1.0 98:1.0 101:1.0 112:1.0
-1.0 3:1.0 7:1.0 16:1.0 21:1.0 28:1.0 33:1.0 34:1.0 36:1.0 39:1.0 50:1.0 53:1.0 57:1.0 67:1.0 76:1.0 78:1.0 81:1.0 83:1.0 88:1.0 98:1.0 101:1.0 112:1.0
-1.0 6:1.0 7:1.0 15:1.0 22:1.0 28:1.0 33:1.0 35:1.0 37:1.0 48:1.0 50:1.0 55:1.0 57:1.0 67:1.0 74:1.0 78:1.0 81:1.0 84:1.0 88:1.0 98:1.0 104:1.0 109:1.0
-1.0 3:1.0 7:1.0 15:1.0 22:1.0 28:1.0 33:1.0 35:1.0 37:1.0 48:1.0 50:1.0 55:1.0 59:1.0 67:1.0 74:1.0 78:1.0 81:1.0 84:1.0 88:1.0 98:1.0 104:1.0 109:1.0
-0.20336266245732582 6:1.0 10:1.0 15:1.0 22:1.0 28:1.0 33:1.0 35:1.0 37:1.0 48:1.0 50:1.0 55:1.0 59:1.0 67:1.0 74:1.0 78:1.0 81:1.0 84:1.0 88:1.0 98:1.0 104:1.0 109:1.0
-0.2768716875525904 4:1.0 7:1.0 12:1.0 21:1.0 28:1.0 33:1.0 34:1.0 36:1.0 39:1.0 50:1.0 53:1.0 57:1.0 67:1.0 76:1.0 78:1.0 81:1.0 83:1.0 88:1.0 98:1.0 101:1.0 112:1.0
-0.5494098427780851 6:1.0 7:1.0 19:1.0 22:1.0 28:1.0 33:1.0 34:1.0 37:1.0 45:1.0 50:1.0 53:1.0 59:1.0 67:1.0 76:1.0 78:1.0 81:1.0 84:1.0 90:1.0 92:1.0 105:1.0 106:1.0
-1.0 6:1.0 8:1.0 11:1.0 21:1.0 28:1.0 33:1.0 34:1.0 36:1.0 48:1.0 50:1.0 53:1.0 57:1.0 67:1.0 76:1.0 78:1.0 81:1.0 83:1.0 86:1.0 98:1.0 104:1.0 110:1.0
-1.0 4:1.0 8:1.0 19:1.0 22:1.0 28:1.0 33:1.0 35:1.0 36:1.0 40:1.0 50:1.0 54:1.0 57:1.0 67:1.0 76:1.0 78:1.0 81:1.0 83:1.0 86:1.0 98:1.0 103:1.0 107:1.0
-0.005753785604660836 2:1.0 8:1.0 19:1.0 22:1.0 28:1.0 33:1.0 35:1.0 36:1.0 45:1.0 50:1.0 54:1.0 58:1.0 67:1.0 76:1.0 78:1.0 81:1.0 83:1.0 86:1.0 98:1.0 103:1.0 107:1.0
-0.3212982458781076 2:1.0 8:1.0 15:1.0 22:1.0 28:1.0 32:1.0 34:1.0 36:1.0 43:1.0 50:1.0 53:1.0 57:1.0 64:1.0 73:1.0 78:1.0 80:1.0 84:1.0 86:1.0 94:1.0 104:1.0 109:1.0
-1.0 6:1.0 8:1.0 19:1.0 22:1.0 28:1.0 33:1.0 35:1.0 36:1.0 40:1.0 50:1.0 54:1.0 57:1.0 67:1.0 76:1.0 78:1.0 81:1.0 83:1.0 86:1.0 98:1.0 103:1.0 107:1.0
-0.22693736197907943 2:1.0 8:1.0 15:1.0 22:1.0 28:1.0 32:1.0 34:1.0 36:1.0 43:1.0 50:1.0 53:1.0 57:1.0 64:1.0 73:1.0 78:1.0 82:1.0 84:1.0 86:1.0 99:1.0 104:1.0 109:1.0
-0.8087239726682941 4:1.0 8:1.0 19:1.0 22:1.0 28:1.0 33:1.0 35:1.0 36:1.0 40:1.0 50:1.0 54:1.0 58:1.0 67:1.0 76:1.0 78:1.0 81:1.0 83:1.0 86:1.0 98:1.0 103:1.0 107:1.0
-1.0 3:1.0 7:1.0 15:1.0 21:1.0 28:1.0 33:1.0 34:1.0 36:1.0 48:1.0 50:1.0 53:1.0 57:1.0 67:1.0 76:1.0 78:1.0 81:1.0 83:1.0 86:1.0 98:1.0 104:1.0 110:1.0
-1.0 2:1.0 8:1.0 15:1.0 22:1.0 28:1.0 33:1.0 34:1.0 36:1.0 48:1.0 50:1.0 52:1.0 56:1.0 65:1.0 74:1.0 78:1.0 81:1.0 83:1.0 86:1.0 98:1.0 105:1.0 106:1.0
-1.0 6:1.0 8:1.0 15:1.0 22:1.0 28:1.0 33:1.0 34:1.0 36:1.0 48:1.0 50:1.0 52:1.0 56:1.0 65:1.0 74:1.0 78:1.0 81:1.0 83:1.0 86:1.0 98:1.0 105:1.0 106:1.0
-1.0 2:1.0 8:1.0 15:1.0 22:1.0 28:1.0 33:1.0 34:1.0 36:1.0 48:1.0 50:1.0 52:1.0 56:1.0 65:1.0 74:1.0 78:1.0 81:1.0 83:1.0 86:1.0 98:1.0 105:1.0 110:1.0
-0.8212267389245193 6:1.0 8:1.0 19:1.0 22:1.0 28:1.0 33:1.0 35:1.0 36:1.0 48:1.0 50:1.0 54:1.0 58:1.0 67:1.0 76:1.0 78:1.0 81:1.0 83:1.0 86:1.0 98:1.0 103:1.0 107:1.0
-1.0 3:1.0 8:1.0 14:1.0 21:1.0 28:1.0 33:1.0 34:1.0 36:1.0 48:1.0 50:1.0 53:1.0 57:1.0 67:1.0 76:1.0 78:1.0 81:1.0 83:1.0 86:1.0 98:1.0 104:1.0 110:1.0
-1.0 6:1.0 7:1.0 14:1.0 21:1.0 28:1.0 33:1.0 34:1.0 36:1.0 48:1.0 50:1.0 53:1.0 57:1.0 67:1.0 76:1.0 78:1.0 81:1.0 83:1.0 86:1.0 98:1.0 104:1.0 110:1.0
-0.5568382115380869 2:1.0 8:1.0 15:1.0 22:1.0 28:1.0 32:1.0 34:1.0 36:1.0 43:1.0 50:1.0 53:1.0 57:1.0 64:1.0 73:1.0 78:1.0 80:1.0 84:1.0 86:1.0 91:1.0 104:1.0 109:1.0
-0.8524292514457212 2:1.0 8:1.0 19:1.0 22:1.0 28:1.0 33:1.0 35:1.0 36:1.0 40:1.0 50:1.0 54:1.0 58:1.0 67:1.0 76:1.0 78:1.0 81:1.0 83:1.0 86:1.0 98:1.0 102:1.0 107:1.0
-1.0 4:1.0 7:1.0 15:1.0 22:1.0 28:1.0 33:1.0 34:1.0 36:1.0 48:1.0 50:1.0 52:1.0 56:1.0 65:1.0 74:1.0 78:1.0 81:1.0 83:1.0 86:1.0 98:1.0 105:1.0 106:1.0
-0.09616866714406033 3:1.0 8:1.0 15:1.0 22:1.0 28:1.0 32:1.0 34:1.0 36:1.0 49:1.0 50:1.0 53:1.0 57:1.0 64:1.0 73:1.0 78:1.0 80:1.0 84:1.0 86:1.0 99:1.0 104:1.0 109:1.0
-1.0 6:1.0 8:1.0 14:1.0 22:1.0 28:1.0 33:1.0 35:1.0 36:1.0 45:1.0 50:1.0 54:1.0 57:1.0 67:1.0 76:1.0 78:1.0 81:1.0 83:1.0 86:1.0 98:1.0 103:1.0 107:1.0
-1.0 2:1.0 8:1.0 14:1.0 22:1.0 28:1.0 33:1.0 35:1.0 36:1.0 40:1.0 50:1.0 54:1.0 58:1.0 67:1.0 76:1.0 78:1.0 81:1.0 83:1.0 86:1.0 98:1.0 103:1.0 107:1.0
-1.0 2:1.0 8:1.0 15:1.0 22:1.0 28:1.0 32:1.0 34:1.0 36:1.0 49:1.0 50:1.0 53:1.0 57:1.0 64:1.0 73:1.0 78:1.0 80:1.0 84:1.0 86:1.0 99:1.0 104:1.0 109:1.0
-1.0 2:1.0 8:1.0 19:1.0 22:1.0 28:1.0 33:1.0 35:1.0 36:1.0 48:1.0 50:1.0 54:1.0 57:1.0 67:1.0 76:1.0 78:1.0 81:1.0 83:1.0 86:1.0 98:1.0 103:1.0 107:1.0
-1.0 3:1.0 7:1.0 15:1.0 22:1.0 28:1.0 33:1.0 34:1.0 36:1.0 48:1.0 50:1.0 52:1.0 56:1.0 65:1.0 74:1.0 78:1.0 81:1.0 83:1.0 86:1.0 98:1.0 105:1.0 106:1.0
-0.36060203289907633 6:1.0 10:1.0 19:1.0 22:1.0 28:1.0 33:1.0 35:1.0 36:1.0 40:1.0 50:1.0 54:1.0 57:1.0 67:1.0 76:1.0 78:1.0 81:1.0 83:1.0 86:1.0 98:1.0 103:1.0 107:1.0
-0.10466918899342997 3:1.0 8:1.0 15:1.0 22:1.0 28:1.0 32:1.0 34:1.0 36:1.0 49:1.0 50:1.0 53:1.0 57:1.0 64:1.0 73:1.0 78:1.0 82:1.0 84:1.0 86:1.0 99:1.0 104:1.0 109:1.0
-1.0 3:1.0 7:1.0 16:1.0 21:1.0 28:1.0 33:1.0 34:1.0 36:1.0 48:1.0 50:1.0 53:1.0 57:1.0 67:1.0 76:1.0 78:1.0 81:1.0 83:1.0 86:1.0 98:1.0 105:1.0 110:1.0
-1.0 6:1.0 7:1.0 16:1.0 21:1.0 28:1.0 33:1.0 34:1.0 36:1.0 48:1.0 50:1.0 53:1.0 57:1.0 67:1.0 76:1.0 78:1.0 81:1.0 83:1.0 86:1.0 98:1.0 104:1.0 110:1.0
-0.13775170761559646 2:1.0 8:1.0 15:1.0 22:1.0 28:1.0 32:1.0 34:1.0 36:1.0 43:1.0 50:1.0 53:1.0 57:1.0 64:1.0 73:1.0 78:1.0 82:1.0 84:1.0 86:1.0 91:1.0 104:1.0 109:1.0
-1.0 2:1.0 8:1.0 19:1.0 22:1.0 28:1.0 33:1.0 35:1.0 36:1.0 48:1.0 50:1.0 54:1.0 58:1.0 67:1.0 76:1.0 78:1.0 81:1.0 83:1.0 86:1.0 98:1.0 103:1.0 107:1.0
-1.0 6:1.0 8:1.0 14:1.0 22:1.0 28:1.0 33:1.0 35:1.0 36:1.0 45:1.0 50:1.0 54:1.0 58:1.0 67:1.0 76:1.0 78:1.0 81:1.0 83:1.0 86:1.0 98:1.0 103:1.0 107:1.0
-0.07845696825095008 2:1.0 8:1.0 14:1.0 22:1.0 28:1.0 33:1.0 35:1.0 36:1.0 45:1.0 50:1.0 54:1.0 58:1.0 67:1.0 76:1.0 78:1.0 81:1.0 83:1.0 86:1.0 98:1.0 103:1.0 107:1.0
-1.0 6:1.0 8:1.0 14:1.0 21:1.0 28:1.0 33:1.0 34:1.0 36:1.0 48:1.0 50:1.0 53:1.0 57:1.0 67:1.0 76:1.0 78:1.0 81:1.0 83:1.0 86:1.0 98:1.0 104:1.0 110:1.0
-1.0 3:1.0 8:1.0 16:1.0 21:1.0 28:1.0 33:1.0 34:1.0 36:1.0 48:1.0 50:1.0 53:1.0 57:1.0 67:1.0 76:1.0 78:1.0 81:1.0 83:1.0 86:1.0 98:1.0 105:1.0 110:1.0
-0.43165107985432705 4:1.0 7:1.0 15:1.0 22:1.0 28:1.0 33:1.0 34:1.0 36:1.0 48:1.0 50:1.0 52:1.0 56:1.0 65:1.0 74:1.0 78:1.0 81:1.0 83:1.0 86:1.0 98:1.0 105:1.0 110:1.0
-0.6611593936768715 3:1.0 8:1.0 15:1.0 22:1.0 28:1.0 32:1.0 34:1.0 36:1.0 49:1.0 50:1.0 53:1.0 57:1.0 64:1.0 73:1.0 78:1.0 82:1.0 84:1.0 86:1.0 91:1.0 104:1.0 109:1.0
-1.0 3:1.0 8:1.0 15:1.0 21:1.0 28:1.0 33:1.0 34:1.0 36:1.0 48:1.0 50:1.0 53:1.0 57:1.0 67:1.0 76:1.0 78:1.0 81:1.0 83:1.0 86:1.0 98:1.0 104:1.0 110:1.0
-1.0 6:1.0 8:1.0 19:1.0 22:1.0 28:1.0 33:1.0 35:1.0 36:1.0 45:1.0 50:1.0 54:1.0 57:1.0 67:1.0 76:1.0 78:1.0 81:1.0 83:1.0 86:1.0 98:1.0 103:1.0 107:1.0
-1.0 2:1.0 8:1.0 19:1.0 22:1.0 28:1.0 33:1.0 35:1.0 36:1.0 40:1.0 50:1.0 54:1.0 58:1.0 67:1.0 76:1.0 78:1.0 81:1.0 83:1.0 86:1.0 98:1.0 103:1.0 107:1.0
-1.0 3:1.0 8:1.0 16:1.0 21:1.0 28:1.0 33:1.0 34:1.0 36:1.0 48:1.0 50:1.0 53:1.0 57:1.0 67:1.0 76:1.0 78:1.0 81:1.0 83:1.0 86:1.0 98:1.0 104:1.0 110:1.0
-1.0 2:1.0 8:1.0 19:1.0 22:1.0 28:1.0 33:1.0 35:1.0 36:1.0 40:1.0 50:1.0 54:1.0 57:1.0 67:1.0 76:1.0 78:1.0 81:1.0 83:1.0 86:1.0 98:1.0 103:1.0 107:1.0
-0.2232642338807118 4:1.0 8:1.0 15:1.0 22:1.0 28:1.0 33:1.0 34:1.0 36:1.0 48:1.0 50:1.0 52:1.0 56:1.0 65:1.0 74:1.0 78:1.0 81:1.0 83:1.0 86:1.0 98:1.0 105:1.0 110:1.0
-1.0 2:1.0 10:1.0 19:1.0 22:1.0 28:1.0 33:1.0 35:1.0 36:1.0 40:1.0 50:1.0 54:1.0 57:1.0 67:1.0 76:1.0 78:1.0 81:1.0 83:1.0 86:1.0 98:1.0 103:1.0 107:1.0
-1.0 2:1.0 8:1.0 14:1.0 22:1.0 28:1.0 33:1.0 35:1.0 36:1.0 48:1.0 50:1.0 54:1.0 57:1.0 67:1.0 76:1.0 78:1.0 81:1.0 83:1.0 86:1.0 98:1.0 103:1.0 107:1.0
-1.0 6:1.0 8:1.0 15:1.0 21:1.0 28:1.0 33:1.0 34:1.0 36:1.0 48:1.0 50:1.0 53:1.0 57:1.0 67:1.0 76:1.0 78:1.0 81:1.0 83:1.0 86:1.0 98:1.0 104:1.0 110:1.0
-1.0 2:1.0 8:1.0 19:1.0 22:1.0 28:1.0 33:1.0 35:1.0 36:1.0 40:1.0 50:1.0 54:1.0 57:1.0 67:1.0 76:1.0 78:1.0 81:1.0 83:1.0 86:1.0 98:1.0 102:1.0 107:1.0
-1.0 2:1.0 8:1.0 14:1.0 22:1.0 28:1.0 33:1.0 35:1.0 36:1.0 40:1.0 50:1.0 54:1.0 57:1.0 67:1.0 76:1.0 78:1.0 81:1.0 83:1.0 86:1.0 98:1.0 103:1.0 107:1.0
-0.7817657627958955 6:1.0 8:1.0 19:1.0 22:1.0 28:1.0 33:1.0 35:1.0 36:1.0 45:1.0 50:1.0 54:1.0 58:1.0 67:1.0 76:1.0 78:1.0 81:1.0 83:1.0 86:1.0 98:1.0 103:1.0 107:1.0
-1.0 2:1.0 8:1.0 14:1.0 22:1.0 28:1.0 33:1.0 35:1.0 36:1.0 45:1.0 50:1.0 54:1.0 57:1.0 67:1.0 76:1.0 78:1.0 81:1.0 83:1.0 86:1.0 98:1.0 103:1.0 107:1.0
-1.0 2:1.0 8:1.0 19:1.0 22:1.0 28:1.0 33:1.0 35:1.0 36:1.0 45:1.0 50:1.0 54:1.0 57:1.0 67:1.0 76:1.0 78:1.0 81:1.0 83:1.0 86:1.0 98:1.0 103:1.0 107:1.0
-0.10228949145932324 3:1.0 8:1.0 15:1.0 22:1.0 28:1.0 32:1.0 34:1.0 36:1.0 49:1.0 50:1.0 53:1.0 57:1.0 64:1.0 73:1.0 78:1.0 80:1.0 84:1.0 86:1.0 94:1.0 104:1.0 109:1.0
-1.0 3:1.0 7:1.0 11:1.0 21:1.0 28:1.0 33:1.0 34:1.0 36:1.0 48:1.0 50:1.0 53:1.0 57:1.0 67:1.0 76:1.0 78:1.0 81:1.0 83:1.0 86:1.0 98:1.0 104:1.0 110:1.0
-0.06583353828831427 3:1.0 8:1.0 15:1.0 22:1.0 28:1.0 32:1.0 34:1.0 36:1.0 49:1.0 50:1.0 53:1.0 57:1.0 64:1.0 73:1.0 78:1.0 80:1.0 84:1.0 86:1.0 91:1.0 104:1.0 109:1.0
-1.0 3:1.0 7:1.0 15:1.0 22:1.0 28:1.0 33:1.0 34:1.0 36:1.0 48:1.0 50:1.0 52:1.0 56:1.0 65:1.0 74:1.0 78:1.0 81:1.0 83:1.0 86:1.0 98:1.0 105:1.0 110:1.0
-1.0 6:1.0 8:1.0 16:1.0 21:1.0 28:1.0 33:1.0 34:1.0 36:1.0 48:1.0 50:1.0 53:1.0 57:1.0 67:1.0 76:1.0 78:1.0 81:1.0 83:1.0 86:1.0 98:1.0 104:1.0 110:1.0
-1.0 2:1.0 8:1.0 15:1.0 22:1.0 28:1.0 32:1.0 34:1.0 36:1.0 49:1.0 50:1.0 53:1.0 57:1.0 64:1.0 73:1.0 78:1.0 82:1.0 84:1.0 86:1.0 94:1.0 104:1.0 109:1.0
